{"learner":{"attributes":{"scikit_learn":"{\"_estimator_type\": \"regressor\"}"},"feature_names":["hour","dayofweek","is_weekend"],"feature_types":["int","int","int"],"gradient_booster":{"model":{"gbtree_model_param":{"num_parallel_tree":"1","num_trees":"100"},"iteration_indptr":[0,1,2,3,4,5,6,7,8,9,10,11,12,13,14,15,16,17,18,19,20,21,22,23,24,25,26,27,28,29,30,31,32,33,34,35,36,37,38,39,40,41,42,43,44,45,46,47,48,49,50,51,52,53,54,55,56,57,58,59,60,61,62,63,64,65,66,67,68,69,70,71,72,73,74,75,76,77,78,79,80,81,82,83,84,85,86,87,88,89,90,91,92,93,94,95,96,97,98,99,100],"tree_info":[0,0,0,0,0,0,0,0,0,0,0,0,0,0,0,0,0,0,0,0,0,0,0,0,0,0,0,0,0,0,0,0,0,0,0,0,0,0,0,0,0,0,0,0,0,0,0,0,0,0,0,0,0,0,0,0,0,0,0,0,0,0,0,0,0,0,0,0,0,0,0,0,0,0,0,0,0,0,0,0,0,0,0,0,0,0,0,0,0,0,0,0,0,0,0,0,0,0,0,0],"trees":[{"base_weights":[2.098402E-8,-5.651971E-1,1.8830301E-1,-6.182223E-1,-2.9944688E-1,2.5055385E-1,-3.086298E-1,-6.4990115E-1,-4.2515796E-1,-2.1583435E-1,-1.5332225E-1,1.20475255E-1,6.396685E-1,-3.8812152E-1,-1.0729531E-1,-6.1166775E-1,-6.593416E-1,-2.7004662E-1,-5.2794415E-1,-2.523113E-1,-5.7342786E-2,3.3760703E-1,4.811695E-2,7.4507684E-1,3.231417E-1,-2.783934E-1,-4.9746844E-1,1.9415894E-1,-4.0550733E-1,-1.8659556E-1,-1.670085E-1,-1.99503E-1,-1.889277E-1,-5.2725773E-2,-1.08899154E-1,-1.4653552E-1,-1.6392691E-1,-8.135881E-2,-6.9714E-2,4.2776337E-1,-2.0974323E-1,-8.383701E-2,3.8367614E-1,6.7590535E-1,9.19972E-1,2.8248212E-1,4.2504814E-1,-7.3095955E-2,-2.8680044E-1,-5.1167625E-1,-1.3148049E-1,1.03049256E-1,1.3156321E-2,-7.583685E-2,-1.6686827E-1,1.5079075E-1,8.3336934E-2,-1.3129294E-1,-2.8495826E-2,2.0844404E-2,-4.8148505E-2,1.0335476E-1,2.0844889E-1,1.5403765E-1,2.2697939E-1,2.4919893E-1,3.0219427E-1,1.01118006E-1,7.3672496E-2,1.664618E-1,8.832267E-2,-9.273845E-2,-7.914734E-2,-1.4392732E-1,-1.564644E-1],"categories":[],"categories_nodes":[],"categories_segments":[],"categories_sizes":[],"default_left":[0,0,0,0,0,0,0,0,0,0,0,0,0,0,0,0,0,0,0,0,0,0,0,0,0,0,0,0,0,0,0,0,0,0,0,0,0,0,0,0,0,0,0,0,0,0,0,0,0,0,0,0,0,0,0,0,0,0,0,0,0,0,0,0,0,0,0,0,0,0,0,0,0,0,0],"id":0,"left_children":[1,3,5,7,9,11,13,15,17,19,-1,21,23,25,27,29,31,33,35,37,-1,39,41,43,45,47,49,51,53,-1,-1,-1,-1,-1,-1,-1,-1,-1,-1,55,57,59,61,63,65,67,69,-1,71,73,-1,-1,-1,-1,-1,-1,-1,-1,-1,-1,-1,-1,-1,-1,-1,-1,-1,-1,-1,-1,-1,-1,-1,-1,-1],"loss_changes":[3.6178171E3,1.1952197E2,7.888447E2,4.303174E1,2.4927673E1,1.1468701E3,4.5394928E1,1.7915039E0,1.5816666E1,8.6686325E-1,0E0,2.6682428E2,1.8916968E2,2.427832E1,7.2446045E1,3.4457397E-1,3.9672852E-1,3.45084E0,1.716919E-1,9.017372E-2,0E0,2.0956815E2,5.6413855E2,5.089038E1,5.7636566E0,2.2743988E-1,6.319885E-1,8.985888E0,9.181549E0,0E0,0E0,0E0,0E0,0E0,0E0,0E0,0E0,0E0,0E0,4.0789673E1,1.5676468E1,1.0749305E2,4.357733E1,3.9657104E1,8.555054E0,1.9677963E0,6.6716003E0,0E0,3.3602905E-1,6.576538E-3,0E0,0E0,0E0,0E0,0E0,0E0,0E0,0E0,0E0,0E0,0E0,0E0,0E0,0E0,0E0,0E0,0E0,0E0,0E0,0E0,0E0,0E0,0E0,0E0,0E0],"parents":[2147483647,0,0,1,1,2,2,3,3,4,4,5,5,6,6,7,7,8,8,9,9,11,11,12,12,13,13,14,14,15,15,16,16,17,17,18,18,19,19,21,21,22,22,23,23,24,24,25,25,26,26,27,27,28,28,39,39,40,40,41,41,42,42,43,43,44,44,45,45,46,46,48,48,49,49],"right_children":[2,4,6,8,10,12,14,16,18,20,-1,22,24,26,28,30,32,34,36,38,-1,40,42,44,46,48,50,52,54,-1,-1,-1,-1,-1,-1,-1,-1,-1,-1,56,58,60,62,64,66,68,70,-1,72,74,-1,-1,-1,-1,-1,-1,-1,-1,-1,-1,-1,-1,-1,-1,-1,-1,-1,-1,-1,-1,-1,-1,-1,-1,-1],"split_conditions":[6E0,5E0,2.2E1,6E0,5E0,1.8E1,5E0,1E0,2E0,2E0,-1.5332225E-1,9E0,2.1E1,2.3E1,6E0,5E0,5E0,1E0,3E0,1E0,-5.7342786E-2,6E0,5E0,5E0,5E0,1E0,4E0,2.3E1,2.3E1,-1.8659556E-1,-1.670085E-1,-1.99503E-1,-1.889277E-1,-5.2725773E-2,-1.08899154E-1,-1.4653552E-1,-1.6392691E-1,-8.135881E-2,-6.9714E-2,8E0,7E0,1.2E1,1.7E1,1.9E1,6E0,2E0,6E0,-7.3095955E-2,3E0,1E0,-1.3148049E-1,1.03049256E-1,1.3156321E-2,-7.583685E-2,-1.6686827E-1,1.5079075E-1,8.3336934E-2,-1.3129294E-1,-2.8495826E-2,2.0844404E-2,-4.8148505E-2,1.0335476E-1,2.0844889E-1,1.5403765E-1,2.2697939E-1,2.4919893E-1,3.0219427E-1,1.01118006E-1,7.3672496E-2,1.664618E-1,8.832267E-2,-9.273845E-2,-7.914734E-2,-1.4392732E-1,-1.564644E-1],"split_indices":[0,0,0,1,1,0,1,0,0,1,0,0,0,0,1,1,1,0,0,1,0,1,1,1,1,1,1,0,0,0,0,0,0,0,0,0,0,0,0,0,0,0,0,0,1,1,1,0,1,1,0,0,0,0,0,0,0,0,0,0,0,0,0,0,0,0,0,0,0,0,0,0,0,0,0],"split_type":[0,0,0,0,0,0,0,0,0,0,0,0,0,0,0,0,0,0,0,0,0,0,0,0,0,0,0,0,0,0,0,0,0,0,0,0,0,0,0,0,0,0,0,0,0,0,0,0,0,0,0,0,0,0,0,0,0,0,0,0,0,0,0,0,0,0,0,0,0,0,0,0,0,0,0],"sum_hessian":[3.3991E4,8.494E3,2.5497E4,7.08E3,1.414E3,2.2659E4,2.838E3,6.08E3,1E3,1.015E3,3.99E2,1.6983E4,5.676E3,2.034E3,8.04E2,1.217E3,4.863E3,4E2,6E2,4.06E2,6.09E2,4.244E3,1.2739E4,4.257E3,1.419E3,1.017E3,1.017E3,4E2,4.04E2,1.016E3,2.01E2,4.063E3,8E2,2E2,2E2,2E2,4E2,2.02E2,2.04E2,3.644E3,6E2,9.144E3,3.595E3,3.054E3,1.203E3,1.017E3,4.02E2,2.04E2,8.13E2,8.14E2,2.03E2,2E2,2E2,2.02E2,2.02E2,2.429E3,1.215E3,2E2,4E2,3.048E3,6.096E3,3.195E3,4E2,1.016E3,2.038E3,6E2,6.03E2,4.07E2,6.1E2,2E2,2.02E2,4.06E2,4.07E2,2.04E2,6.1E2],"tree_param":{"num_deleted":"0","num_feature":"3","num_nodes":"75","size_leaf_vector":"1"}},{"base_weights":[-1.9363004E-5,-3.9582345E-1,1.3184807E-1,-4.3292704E-1,-2.0986849E-1,1.7546362E-1,-2.1632384E-1,-4.550528E-1,-2.9808217E-1,-1.512892E-1,-1.0744056E-1,8.435378E-2,4.480079E-1,-2.720177E-1,-7.526385E-2,-4.2845774E-1,-4.6161896E-1,-1.8943566E-1,-3.7007746E-1,-1.7698914E-1,-4.0168155E-2,1.886668E-1,9.87356E-3,5.2177274E-1,2.265017E-1,-1.9511601E-1,-3.4865212E-1,1.3620105E-1,-2.8445438E-1,-1.3067193E-1,-1.17153965E-1,-1.3966683E-1,-1.3232014E-1,-3.6986727E-2,-7.6391935E-2,-1.0279358E-1,-1.1487148E-1,-5.7071414E-2,-4.890184E-2,2.226391E-1,-1.7697236E-2,-9.690342E-2,2.813156E-1,4.7325847E-1,6.444384E-1,1.9790918E-1,2.9816592E-1,-5.127415E-2,-2.0097147E-1,-1.0756259E-1,-9.2229694E-2,7.228828E-2,9.2290705E-3,-5.3197853E-2,-1.170544E-1,1.05572134E-1,4.0926907E-2,-7.127278E-2,3.8711987E-2,-3.8644195E-2,2.8349502E-2,7.404595E-2,1.4607017E-1,1.07871816E-1,1.5891896E-1,1.7456365E-1,2.1168609E-1,7.0856966E-2,5.1606912E-2,1.167717E-1,6.19564E-2,-6.4985275E-2,-5.546134E-2],"categories":[],"categories_nodes":[],"categories_segments":[],"categories_sizes":[],"default_left":[0,0,0,0,0,0,0,0,0,0,0,0,0,0,0,0,0,0,0,0,0,0,0,0,0,0,0,0,0,0,0,0,0,0,0,0,0,0,0,0,0,0,0,0,0,0,0,0,0,0,0,0,0,0,0,0,0,0,0,0,0,0,0,0,0,0,0,0,0,0,0,0,0],"id":1,"left_children":[1,3,5,7,9,11,13,15,17,19,-1,21,23,25,27,29,31,33,35,37,-1,39,41,43,45,47,49,51,53,-1,-1,-1,-1,-1,-1,-1,-1,-1,-1,55,57,59,61,63,65,67,69,-1,71,-1,-1,-1,-1,-1,-1,-1,-1,-1,-1,-1,-1,-1,-1,-1,-1,-1,-1,-1,-1,-1,-1,-1,-1],"loss_changes":[1.7742195E3,5.852112E1,3.8724313E2,2.0990845E1,1.2235596E1,5.626433E2,2.2283203E1,8.6413574E-1,7.759758E0,4.305153E-1,0E0,1.319512E2,9.264038E1,1.1924866E1,3.564909E1,1.5875244E-1,1.8823242E-1,1.6981297E0,8.028412E-2,4.439068E-2,0E0,4.960437E1,2.8725632E2,2.5034546E1,2.8506546E0,1.099205E-1,3.0477142E-1,4.421879E0,4.5179787E0,0E0,0E0,0E0,0E0,0E0,0E0,0E0,0E0,0E0,0E0,6.7657715E1,3.2327305E1,4.3456505E1,1.9722717E1,1.9422546E1,4.1977234E0,9.681473E-1,3.2831917E0,0E0,1.6500473E-1,0E0,0E0,0E0,0E0,0E0,0E0,0E0,0E0,0E0,0E0,0E0,0E0,0E0,0E0,0E0,0E0,0E0,0E0,0E0,0E0,0E0,0E0,0E0,0E0],"parents":[2147483647,0,0,1,1,2,2,3,3,4,4,5,5,6,6,7,7,8,8,9,9,11,11,12,12,13,13,14,14,15,15,16,16,17,17,18,18,19,19,21,21,22,22,23,23,24,24,25,25,26,26,27,27,28,28,39,39,40,40,41,41,42,42,43,43,44,44,45,45,46,46,48,48],"right_children":[2,4,6,8,10,12,14,16,18,20,-1,22,24,26,28,30,32,34,36,38,-1,40,42,44,46,48,50,52,54,-1,-1,-1,-1,-1,-1,-1,-1,-1,-1,56,58,60,62,64,66,68,70,-1,72,-1,-1,-1,-1,-1,-1,-1,-1,-1,-1,-1,-1,-1,-1,-1,-1,-1,-1,-1,-1,-1,-1,-1,-1],"split_conditions":[6E0,5E0,2.2E1,6E0,5E0,1.8E1,5E0,1E0,2E0,2E0,-1.0744056E-1,1.1E1,2.1E1,2.3E1,6E0,5E0,5E0,1E0,3E0,1E0,-4.0168155E-2,6E0,5E0,5E0,5E0,1E0,4E0,2.3E1,2.3E1,-1.3067193E-1,-1.17153965E-1,-1.3966683E-1,-1.3232014E-1,-3.6986727E-2,-7.6391935E-2,-1.0279358E-1,-1.1487148E-1,-5.7071414E-2,-4.890184E-2,8E0,8E0,1.7E1,1.7E1,1.9E1,6E0,2E0,6E0,-5.127415E-2,3E0,-1.0756259E-1,-9.2229694E-2,7.228828E-2,9.2290705E-3,-5.3197853E-2,-1.170544E-1,1.05572134E-1,4.0926907E-2,-7.127278E-2,3.8711987E-2,-3.8644195E-2,2.8349502E-2,7.404595E-2,1.4607017E-1,1.07871816E-1,1.5891896E-1,1.7456365E-1,2.1168609E-1,7.0856966E-2,5.1606912E-2,1.167717E-1,6.19564E-2,-6.4985275E-2,-5.546134E-2],"split_indices":[0,0,0,1,1,0,1,0,0,1,0,0,0,0,1,1,1,0,0,1,0,1,1,1,1,1,1,0,0,0,0,0,0,0,0,0,0,0,0,0,0,0,0,0,1,1,1,0,1,0,0,0,0,0,0,0,0,0,0,0,0,0,0,0,0,0,0,0,0,0,0,0,0],"split_type":[0,0,0,0,0,0,0,0,0,0,0,0,0,0,0,0,0,0,0,0,0,0,0,0,0,0,0,0,0,0,0,0,0,0,0,0,0,0,0,0,0,0,0,0,0,0,0,0,0,0,0,0,0,0,0,0,0,0,0,0,0,0,0,0,0,0,0,0,0,0,0,0,0],"sum_hessian":[3.3991E4,8.494E3,2.5497E4,7.08E3,1.414E3,2.2659E4,2.838E3,6.08E3,1E3,1.015E3,3.99E2,1.6983E4,5.676E3,2.034E3,8.04E2,1.217E3,4.863E3,4E2,6E2,4.06E2,6.09E2,7.074E3,9.909E3,4.257E3,1.419E3,1.017E3,1.017E3,4E2,4.04E2,1.016E3,2.01E2,4.063E3,8E2,2E2,2E2,2E2,4E2,2.02E2,2.04E2,6.074E3,1E3,7.112E3,2.797E3,3.054E3,1.203E3,1.017E3,4.02E2,2.04E2,8.13E2,8.14E2,2.03E2,2E2,2E2,2.02E2,2.02E2,2.429E3,3.645E3,4E2,6E2,6.096E3,1.016E3,2.397E3,4E2,1.016E3,2.038E3,6E2,6.03E2,4.07E2,6.1E2,2E2,2.02E2,4.06E2,4.07E2],"tree_param":{"num_deleted":"0","num_feature":"3","num_nodes":"73","size_leaf_vector":"1"}},{"base_weights":[-2.198133E-5,-2.7720642E-1,9.2325725E-2,-3.0316907E-1,-1.4708714E-1,1.2288093E-1,-1.5158878E-1,-3.1862244E-1,-2.0898823E-1,-1.06046274E-1,-7.528897E-2,5.9066713E-2,3.1377363E-1,-1.9059493E-1,-5.2794915E-2,-3.001239E-1,-3.2318917E-1,-1.328877E-1,-2.5941637E-1,-1.2415277E-1,-9.379154E-2,1.1495047E-1,-1.9123647E-2,3.653943E-1,1.587633E-1,-1.367499E-1,-2.4425273E-1,9.554403E-2,-1.9953842E-1,-9.15089E-2,-8.218178E-2,-3.2592356E-1,-9.267366E-2,-2.5945919E-2,-5.358837E-2,-7.2108924E-2,-8.049597E-2,-4.003434E-2,-3.4302846E-2,-2.6333641E-2,-9.657484E-2,1.6911173E-1,7.4316405E-2,-1.0275425E-1,1.9334947E-1,3.3136827E-1,4.5142764E-1,1.3865675E-1,2.0915963E-1,-3.777907E-2,-1.4375098E-1,-2.511113E-1,-6.469641E-2,5.0709695E-2,6.474127E-3,-3.7317112E-2,-8.211107E-2,-9.4796985E-2,-9.873934E-2,-3.1244667E-2,-2.658108E-2,7.443005E-2,-9.598501E-3,8.043742E-3,5.8555882E-2,-4.3497864E-2,1.9853007E-2,4.6852477E-2,1.0235841E-1,1.0884519E-1,6.1648E-2,1.466621E-1,1.1265177E-1,4.5659725E-2,2.5162242E-2,8.191448E-2,4.3461036E-2,-5.143706E-2,-3.886372E-2,-6.884837E-2,-7.7385925E-2],"categories":[],"categories_nodes":[],"categories_segments":[],"categories_sizes":[],"default_left":[0,0,0,0,0,0,0,0,0,0,0,0,0,0,0,0,0,0,0,0,0,0,0,0,0,0,0,0,0,0,0,0,0,0,0,0,0,0,0,0,0,0,0,0,0,0,0,0,0,0,0,0,0,0,0,0,0,0,0,0,0,0,0,0,0,0,0,0,0,0,0,0,0,0,0,0,0,0,0,0,0],"id":2,"left_children":[1,3,5,7,9,11,13,15,17,19,-1,21,23,25,27,29,31,33,35,37,39,41,43,45,47,49,51,53,55,-1,-1,57,-1,-1,-1,-1,-1,-1,-1,-1,59,61,63,65,67,69,71,73,75,-1,77,79,-1,-1,-1,-1,-1,-1,-1,-1,-1,-1,-1,-1,-1,-1,-1,-1,-1,-1,-1,-1,-1,-1,-1,-1,-1,-1,-1,-1,-1],"loss_changes":[8.701306E2,2.8653564E1,1.9005164E2,1.0239197E1,6.005762E0,2.7601807E2,1.0930214E1,4.16687E-1,3.8069725E0,2.1379662E-1,0E0,7.421498E1,4.536786E1,5.8461304E0,1.7542128E1,7.2898865E-2,8.92334E-2,8.3563614E-1,3.7460327E-2,2.185297E-2,1.7309189E-3,2.1786285E1,1.25826195E2,1.23151245E1,1.4098778E0,5.9009552E-2,1.4552307E-1,2.1759708E0,2.2231655E0,0E0,0E0,2.5482178E-2,0E0,0E0,0E0,0E0,0E0,0E0,0E0,0E0,1.534462E-2,6.744021E1,3.2499065E1,3.626462E1,1.0938873E1,1.20191345E1,3.2393646E0,7.424717E-1,1.615715E0,0E0,2.1826077E-1,6.1332703E-2,0E0,0E0,0E0,0E0,0E0,0E0,0E0,0E0,0E0,0E0,0E0,0E0,0E0,0E0,0E0,0E0,0E0,0E0,0E0,0E0,0E0,0E0,0E0,0E0,0E0,0E0,0E0,0E0,0E0],"parents":[2147483647,0,0,1,1,2,2,3,3,4,4,5,5,6,6,7,7,8,8,9,9,11,11,12,12,13,13,14,14,15,15,16,16,17,17,18,18,19,19,20,20,21,21,22,22,23,23,24,24,25,25,26,26,27,27,28,28,31,31,40,40,41,41,42,42,43,43,44,44,45,45,46,46,47,47,48,48,50,50,51,51],"right_children":[2,4,6,8,10,12,14,16,18,20,-1,22,24,26,28,30,32,34,36,38,40,42,44,46,48,50,52,54,56,-1,-1,58,-1,-1,-1,-1,-1,-1,-1,-1,60,62,64,66,68,70,72,74,76,-1,78,80,-1,-1,-1,-1,-1,-1,-1,-1,-1,-1,-1,-1,-1,-1,-1,-1,-1,-1,-1,-1,-1,-1,-1,-1,-1,-1,-1,-1,-1],"split_conditions":[6E0,5E0,2.2E1,6E0,5E0,1.8E1,5E0,1E0,2E0,2E0,-7.528897E-2,1.3E1,2.1E1,2.3E1,6E0,5E0,5E0,1E0,3E0,1E0,3E0,9E0,5E0,5E0,5E0,2E0,4E0,2.3E1,2.3E1,-9.15089E-2,-8.218178E-2,2E0,-9.267366E-2,-2.5945919E-2,-5.358837E-2,-7.2108924E-2,-8.049597E-2,-4.003434E-2,-3.4302846E-2,-2.6333641E-2,4E0,5E0,5E0,1.7E1,1.7E1,4E0,2E1,4E0,6E0,-3.777907E-2,3E0,1E0,-6.469641E-2,5.0709695E-2,6.474127E-3,-3.7317112E-2,-8.211107E-2,-9.4796985E-2,-9.873934E-2,-3.1244667E-2,-2.658108E-2,7.443005E-2,-9.598501E-3,8.043742E-3,5.8555882E-2,-4.3497864E-2,1.9853007E-2,4.6852477E-2,1.0235841E-1,1.0884519E-1,6.1648E-2,1.466621E-1,1.1265177E-1,4.5659725E-2,2.5162242E-2,8.191448E-2,4.3461036E-2,-5.143706E-2,-3.886372E-2,-6.884837E-2,-7.7385925E-2],"split_indices":[0,0,0,1,1,0,1,0,0,1,0,0,0,0,1,1,1,0,0,1,1,0,1,1,1,1,1,0,0,0,0,0,0,0,0,0,0,0,0,0,1,1,1,0,0,1,0,1,1,0,1,1,0,0,0,0,0,0,0,0,0,0,0,0,0,0,0,0,0,0,0,0,0,0,0,0,0,0,0,0,0],"split_type":[0,0,0,0,0,0,0,0,0,0,0,0,0,0,0,0,0,0,0,0,0,0,0,0,0,0,0,0,0,0,0,0,0,0,0,0,0,0,0,0,0,0,0,0,0,0,0,0,0,0,0,0,0,0,0,0,0,0,0,0,0,0,0,0,0,0,0,0,0,0,0,0,0,0,0,0,0,0,0,0,0],"sum_hessian":[3.3991E4,8.494E3,2.5497E4,7.08E3,1.414E3,2.2659E4,2.838E3,6.08E3,1E3,1.015E3,3.99E2,1.6983E4,5.676E3,2.034E3,8.04E2,1.217E3,4.863E3,4E2,6E2,4.06E2,6.09E2,9.904E3,7.079E3,4.257E3,1.419E3,1.017E3,1.017E3,4E2,4.04E2,1.016E3,2.01E2,4.063E3,8E2,2E2,2E2,2E2,4E2,2.02E2,2.04E2,2.03E2,4.06E2,4.244E3,5.66E3,5.08E3,1.999E3,3.054E3,1.203E3,1.017E3,4.02E2,4.07E2,6.1E2,8.14E2,2.03E2,2E2,2E2,2.02E2,2.02E2,1.016E3,3.047E3,2.02E2,2.04E2,3.047E3,1.197E3,4.064E3,1.596E3,4.064E3,1.016E3,1.599E3,4E2,2.442E3,6.12E2,8.02E2,4.01E2,8.14E2,2.03E2,2E2,2.02E2,2.03E2,4.07E2,2.04E2,6.1E2],"tree_param":{"num_deleted":"0","num_feature":"3","num_nodes":"81","size_leaf_vector":"1"}},{"base_weights":[-2.8459777E-5,-1.9415347E-1,6.4646885E-2,-2.1231608E-1,-1.0312621E-1,8.605561E-2,-1.0625349E-1,-2.2311132E-1,-1.4652367E-1,-7.4388385E-2,-5.2758746E-2,4.1361824E-2,2.1975176E-1,-1.3358302E-1,-3.7033778E-2,-2.1511228E-1,-2.2839087E-1,-9.3219735E-2,-1.818454E-1,-8.708958E-2,-6.5792024E-2,8.047859E-2,-1.3368818E-2,2.5587693E-1,1.11272454E-1,-9.585072E-2,-1.7118412E-1,6.7023404E-2,-1.399718E-1,-7.1045354E-2,-2.1067809E-1,-2.3324299E-1,-2.184867E-1,-1.8200872E-2,-3.7591837E-2,-5.0583877E-2,-5.64074E-2,-2.80832E-2,-2.4062194E-2,-1.8472278E-2,-6.774444E-2,1.372554E-1,5.77597E-2,-9.584691E-2,9.754406E-2,2.387352E-1,3.5918334E-1,9.712925E-2,1.4672285E-1,-9.917074E-2,-2.4635127E-2,-1.7595737E-1,-4.538262E-2,3.557246E-2,4.541547E-3,-2.6177129E-2,-5.7599094E-2,-6.060486E-2,-6.48917E-2,-6.6955246E-2,-7.1443215E-2,-6.671205E-2,-5.9294816E-2,-2.1917433E-2,-1.8645648E-2,6.665768E-2,-2.3677789E-2,9.106223E-3,3.8248286E-2,-1.4791052E-2,-7.086329E-2,1.6091818E-2,4.9007002E-2,5.8007874E-2,7.8383595E-2,8.464106E-2,1.19073264E-1,3.401203E-2,2.1769421E-2,5.746241E-2,3.0486941E-2,-2.6473122E-2,-3.2956403E-2,-4.8294615E-2,-5.4208152E-2],"categories":[],"categories_nodes":[],"categories_segments":[],"categories_sizes":[],"default_left":[0,0,0,0,0,0,0,0,0,0,0,0,0,0,0,0,0,0,0,0,0,0,0,0,0,0,0,0,0,0,0,0,0,0,0,0,0,0,0,0,0,0,0,0,0,0,0,0,0,0,0,0,0,0,0,0,0,0,0,0,0,0,0,0,0,0,0,0,0,0,0,0,0,0,0,0,0,0,0,0,0,0,0,0,0],"id":3,"left_children":[1,3,5,7,9,11,13,15,17,19,-1,21,23,25,27,29,31,33,35,37,39,41,43,45,47,49,51,53,55,-1,57,59,61,-1,-1,-1,-1,-1,-1,-1,63,65,67,69,71,73,75,77,79,81,-1,83,-1,-1,-1,-1,-1,-1,-1,-1,-1,-1,-1,-1,-1,-1,-1,-1,-1,-1,-1,-1,-1,-1,-1,-1,-1,-1,-1,-1,-1,-1,-1,-1,-1],"loss_changes":[4.267856E2,1.4022827E1,9.3300156E1,4.9965515E0,2.9446688E0,1.3539319E2,5.365711E0,2.0770264E-1,1.8677177E0,1.05201244E-1,0E0,3.6361877E1,2.221875E1,2.8708E0,8.63209E0,1.844635E-1,1.24298096E-1,4.1120887E-1,1.7438889E-2,1.0758162E-2,8.518696E-4,1.2768593E1,6.477635E1,7.4544983E0,6.9771194E-1,3.8272858E-2,7.0121765E-2,1.070777E0,1.0939565E0,0E0,5.530548E-2,6.680298E-2,5.4454803E-2,0E0,0E0,0E0,0E0,0E0,0E0,0E0,7.5535774E-3,5.198132E1,1.3519215E1,2.6518955E1,8.71747E0,3.6882477E0,1.6437073E0,3.979864E-1,7.9512024E-1,8.5451126E-2,0E0,2.8720856E-2,0E0,0E0,0E0,0E0,0E0,0E0,0E0,0E0,0E0,0E0,0E0,0E0,0E0,0E0,0E0,0E0,0E0,0E0,0E0,0E0,0E0,0E0,0E0,0E0,0E0,0E0,0E0,0E0,0E0,0E0,0E0,0E0,0E0],"parents":[2147483647,0,0,1,1,2,2,3,3,4,4,5,5,6,6,7,7,8,8,9,9,11,11,12,12,13,13,14,14,15,15,16,16,17,17,18,18,19,19,20,20,21,21,22,22,23,23,24,24,25,25,26,26,27,27,28,28,30,30,31,31,32,32,40,40,41,41,42,42,43,43,44,44,45,45,46,46,47,47,48,48,49,49,51,51],"right_children":[2,4,6,8,10,12,14,16,18,20,-1,22,24,26,28,30,32,34,36,38,40,42,44,46,48,50,52,54,56,-1,58,60,62,-1,-1,-1,-1,-1,-1,-1,64,66,68,70,72,74,76,78,80,82,-1,84,-1,-1,-1,-1,-1,-1,-1,-1,-1,-1,-1,-1,-1,-1,-1,-1,-1,-1,-1,-1,-1,-1,-1,-1,-1,-1,-1,-1,-1,-1,-1,-1,-1],"split_conditions":[6E0,5E0,2.2E1,6E0,5E0,1.8E1,5E0,2E0,2E0,2E0,-5.2758746E-2,1.3E1,2.1E1,2.3E1,6E0,1E0,4E0,1E0,3E0,1E0,3E0,8E0,4E0,6E0,5E0,4E0,4E0,2.3E1,2.3E1,-7.1045354E-2,3E0,2E0,5E0,-1.8200872E-2,-3.7591837E-2,-5.0583877E-2,-5.64074E-2,-2.80832E-2,-2.4062194E-2,-1.8472278E-2,4E0,5E0,5E0,3E0,1.6E1,1.9E1,1.9E1,3E0,6E0,2E0,-2.4635127E-2,1E0,-4.538262E-2,3.557246E-2,4.541547E-3,-2.6177129E-2,-5.7599094E-2,-6.060486E-2,-6.48917E-2,-6.6955246E-2,-7.1443215E-2,-6.671205E-2,-5.9294816E-2,-2.1917433E-2,-1.8645648E-2,6.665768E-2,-2.3677789E-2,9.106223E-3,3.8248286E-2,-1.4791052E-2,-7.086329E-2,1.6091818E-2,4.9007002E-2,5.8007874E-2,7.8383595E-2,8.464106E-2,1.19073264E-1,3.401203E-2,2.1769421E-2,5.746241E-2,3.0486941E-2,-2.6473122E-2,-3.2956403E-2,-4.8294615E-2,-5.4208152E-2],"split_indices":[0,0,0,1,1,0,1,0,0,1,0,0,0,0,1,1,0,0,0,1,1,0,1,1,1,1,1,0,0,0,1,1,1,0,0,0,0,0,0,0,1,1,1,1,0,0,0,1,1,1,0,1,0,0,0,0,0,0,0,0,0,0,0,0,0,0,0,0,0,0,0,0,0,0,0,0,0,0,0,0,0,0,0,0,0],"split_type":[0,0,0,0,0,0,0,0,0,0,0,0,0,0,0,0,0,0,0,0,0,0,0,0,0,0,0,0,0,0,0,0,0,0,0,0,0,0,0,0,0,0,0,0,0,0,0,0,0,0,0,0,0,0,0,0,0,0,0,0,0,0,0,0,0,0,0,0,0,0,0,0,0,0,0,0,0,0,0,0,0,0,0,0,0],"sum_hessian":[3.3991E4,8.494E3,2.5497E4,7.08E3,1.414E3,2.2659E4,2.838E3,6.08E3,1E3,1.015E3,3.99E2,1.6983E4,5.676E3,2.034E3,8.04E2,2.434E3,3.646E3,4E2,6E2,4.06E2,6.09E2,9.904E3,7.079E3,4.257E3,1.419E3,1.017E3,1.017E3,4E2,4.04E2,4.04E2,2.03E3,2.432E3,1.214E3,2E2,2E2,2E2,4E2,2.02E2,2.04E2,2.03E2,4.06E2,2.829E3,7.075E3,4.06E3,3.019E3,3.654E3,6.03E2,1.017E3,4.02E2,8.14E2,2.03E2,8.14E2,2.03E2,2E2,2E2,2.02E2,2.02E2,8.14E2,1.216E3,8.12E2,1.62E3,1.015E3,1.99E2,2.02E2,2.04E2,2.031E3,7.98E2,5.08E3,1.995E3,3.05E3,1.01E3,1.812E3,1.207E3,1.216E3,2.438E3,2.01E2,4.02E2,6.1E2,4.07E2,2E2,2.02E2,4.07E2,4.07E2,2.04E2,6.1E2],"tree_param":{"num_deleted":"0","num_feature":"3","num_nodes":"85","size_leaf_vector":"1"}},{"base_weights":[-3.492295E-5,-1.3600014E-1,4.526371E-2,-1.4870934E-1,-7.230421E-2,6.026334E-2,-7.447452E-2,-1.5625373E-1,-1.02729194E-1,-5.2181304E-2,-3.697069E-2,2.2807587E-2,1.4246424E-1,-9.3622096E-2,-2.5977878E-2,-1.458028E-1,-1.5883863E-1,-6.539296E-2,-1.274698E-1,-6.109082E-2,-4.6151217E-2,5.3230032E-2,-5.8274172E-2,1.21827886E-1,1.9473505E-1,-6.717808E-2,-1.1997415E-1,4.7016453E-2,-9.818713E-2,-1.4927615E-1,-3.827817E-2,-1.6060814E-1,-1.4966236E-1,-1.2767776E-2,-2.63704E-2,-3.5484202E-2,-3.952738E-2,-1.9699737E-2,-1.6878743E-2,-1.2957767E-2,-4.7520787E-2,-1.9098105E-2,6.533641E-2,-1.1694665E-1,2.0667939E-2,7.706037E-2,1.5156956E-1,2.3523733E-1,1.3389054E-1,-1.6785298E-2,-6.992301E-2,-1.2329592E-1,-3.1834573E-2,2.495383E-2,3.1858687E-3,-1.8362682E-2,-4.0404495E-2,-4.7000833E-2,-4.3232106E-2,-4.9338415E-2,-4.7002196E-2,-4.59216E-2,-4.159531E-2,-1.5374602E-2,-1.3079241E-2,2.36877E-2,-3.5103332E-2,3.7080232E-2,1.0760548E-2,-2.3859197E-2,-6.888551E-2,-3.502591E-3,2.5612127E-2,7.5602494E-3,2.7019681E-2,5.7958778E-2,2.0413576E-2,5.7061996E-2,7.722951E-2,3.0060302E-2,5.0099548E-2,-2.3295522E-2,-1.8612554E-2,-3.387691E-2,-3.797232E-2],"categories":[],"categories_nodes":[],"categories_segments":[],"categories_sizes":[],"default_left":[0,0,0,0,0,0,0,0,0,0,0,0,0,0,0,0,0,0,0,0,0,0,0,0,0,0,0,0,0,0,0,0,0,0,0,0,0,0,0,0,0,0,0,0,0,0,0,0,0,0,0,0,0,0,0,0,0,0,0,0,0,0,0,0,0,0,0,0,0,0,0,0,0,0,0,0,0,0,0,0,0,0,0,0,0],"id":4,"left_children":[1,3,5,7,9,11,13,15,17,19,-1,21,23,25,27,29,31,33,35,37,39,41,43,45,47,49,51,53,55,57,-1,59,61,-1,-1,-1,-1,-1,-1,-1,63,65,67,69,71,73,75,77,79,-1,81,83,-1,-1,-1,-1,-1,-1,-1,-1,-1,-1,-1,-1,-1,-1,-1,-1,-1,-1,-1,-1,-1,-1,-1,-1,-1,-1,-1,-1,-1,-1,-1,-1,-1],"loss_changes":[2.0936421E2,6.8661346E0,4.5799637E1,2.4402924E0,1.4437866E0,6.9764534E1,2.6338434E0,1.4112854E-1,9.163084E-1,5.1765442E-2,0E0,3.840477E1,7.62735E0,1.4100399E0,4.2476635E0,5.7987213E-2,5.49469E-2,2.0235264E-1,8.097649E-3,5.2958727E-3,4.1925907E-4,9.914276E0,1.9678005E1,6.762787E0,4.911972E0,2.7460098E-2,3.3782005E-2,5.2692074E-1,5.383041E-1,1.6288757E-2,0E0,3.5835266E-2,8.84819E-3,0E0,0E0,0E0,0E0,0E0,0E0,0E0,3.7183166E-3,1.5601369E1,1.6646347E1,1.0255459E1,3.7931423E0,1.3688774E0,1.0611992E1,1.1533432E0,8.800411E-1,0E0,4.4764042E-2,1.3422012E-2,0E0,0E0,0E0,0E0,0E0,0E0,0E0,0E0,0E0,0E0,0E0,0E0,0E0,0E0,0E0,0E0,0E0,0E0,0E0,0E0,0E0,0E0,0E0,0E0,0E0,0E0,0E0,0E0,0E0,0E0,0E0,0E0,0E0],"parents":[2147483647,0,0,1,1,2,2,3,3,4,4,5,5,6,6,7,7,8,8,9,9,11,11,12,12,13,13,14,14,15,15,16,16,17,17,18,18,19,19,20,20,21,21,22,22,23,23,24,24,25,25,26,26,27,27,28,28,29,29,31,31,32,32,40,40,41,41,42,42,43,43,44,44,45,45,46,46,47,47,48,48,50,50,51,51],"right_children":[2,4,6,8,10,12,14,16,18,20,-1,22,24,26,28,30,32,34,36,38,40,42,44,46,48,50,52,54,56,58,-1,60,62,-1,-1,-1,-1,-1,-1,-1,64,66,68,70,72,74,76,78,80,-1,82,84,-1,-1,-1,-1,-1,-1,-1,-1,-1,-1,-1,-1,-1,-1,-1,-1,-1,-1,-1,-1,-1,-1,-1,-1,-1,-1,-1,-1,-1,-1,-1,-1,-1],"split_conditions":[6E0,5E0,2.2E1,6E0,5E0,1.7E1,5E0,1E0,2E0,2E0,-3.697069E-2,1.4E1,5E0,2.3E1,6E0,5E0,5E0,1E0,3E0,1E0,3E0,1E0,4E0,1.9E1,2E1,1E0,4E0,2.3E1,2.3E1,2E0,-3.827817E-2,3E0,4E0,-1.2767776E-2,-2.63704E-2,-3.5484202E-2,-3.952738E-2,-1.9699737E-2,-1.6878743E-2,-1.2957767E-2,4E0,1E1,3E0,3E0,1.6E1,1E0,2.1E1,1.8E1,6E0,-1.6785298E-2,3E0,1E0,-3.1834573E-2,2.495383E-2,3.1858687E-3,-1.8362682E-2,-4.0404495E-2,-4.7000833E-2,-4.3232106E-2,-4.9338415E-2,-4.7002196E-2,-4.59216E-2,-4.159531E-2,-1.5374602E-2,-1.3079241E-2,2.36877E-2,-3.5103332E-2,3.7080232E-2,1.0760548E-2,-2.3859197E-2,-6.888551E-2,-3.502591E-3,2.5612127E-2,7.5602494E-3,2.7019681E-2,5.7958778E-2,2.0413576E-2,5.7061996E-2,7.722951E-2,3.0060302E-2,5.0099548E-2,-2.3295522E-2,-1.8612554E-2,-3.387691E-2,-3.797232E-2],"split_indices":[0,0,0,1,1,0,1,0,0,1,0,0,1,0,1,1,1,0,0,1,1,1,1,0,0,1,1,0,0,1,0,0,0,0,0,0,0,0,0,0,1,0,1,1,0,1,0,0,1,0,1,1,0,0,0,0,0,0,0,0,0,0,0,0,0,0,0,0,0,0,0,0,0,0,0,0,0,0,0,0,0,0,0,0,0],"split_type":[0,0,0,0,0,0,0,0,0,0,0,0,0,0,0,0,0,0,0,0,0,0,0,0,0,0,0,0,0,0,0,0,0,0,0,0,0,0,0,0,0,0,0,0,0,0,0,0,0,0,0,0,0,0,0,0,0,0,0,0,0,0,0,0,0,0,0,0,0,0,0,0,0,0,0,0,0,0,0,0,0,0,0,0,0],"sum_hessian":[3.3991E4,8.494E3,2.5497E4,7.08E3,1.414E3,2.2659E4,2.838E3,6.08E3,1E3,1.015E3,3.99E2,1.5567E4,7.092E3,2.034E3,8.04E2,1.217E3,4.863E3,4E2,6E2,4.06E2,6.09E2,1.132E4,4.247E3,5.087E3,2.005E3,1.017E3,1.017E3,4E2,4.04E2,1.016E3,2.01E2,4.063E3,8E2,2E2,2E2,2E2,4E2,2.02E2,2.04E2,2.03E2,4.06E2,1.623E3,9.697E3,2.436E3,1.811E3,2.032E3,3.055E3,1.202E3,8.03E2,2.04E2,8.13E2,8.14E2,2.03E2,2E2,2E2,2.02E2,2.02E2,4.06E2,6.1E2,2.032E3,2.031E3,6.01E2,1.99E2,2.02E2,2.04E2,8.11E2,8.12E2,3.256E3,6.441E3,1.83E3,6.06E2,1.208E3,6.03E2,4.08E2,1.624E3,2.038E3,1.017E3,4E2,8.02E2,4E2,4.03E2,4.06E2,4.07E2,2.04E2,6.1E2],"tree_param":{"num_deleted":"0","num_feature":"3","num_nodes":"85","size_leaf_vector":"1"}},{"base_weights":[-3.7429905E-5,-9.5263846E-2,3.1688526E-2,-1.0415677E-1,-5.0694197E-2,4.2197276E-2,-5.220014E-2,-1.0942897E-1,-7.202447E-2,-3.660368E-2,-8.635738E-2,1.5963104E-2,9.9771135E-2,-6.561525E-2,-1.8222557E-2,-1.0445567E-1,-1.12719506E-1,-4.5872662E-2,-8.935368E-2,-4.285345E-2,-3.237375E-2,-2.4175636E-2,-2.7501287E-2,3.7264224E-2,-4.0808536E-2,1.11706175E-1,5.2011136E-2,-4.7082305E-2,-8.408374E-2,3.2981686E-2,-6.887609E-2,-3.5369173E-2,-1.01723865E-1,-1.1878745E-1,-1.0963166E-1,-8.956495E-3,-1.8498637E-2,-2.4891907E-2,-2.7698744E-2,-1.3818926E-2,-1.1839827E-2,-9.089497E-3,-3.3334468E-2,1.0218225E-1,2.7988331E-2,-1.8044962E-1,-1.7254965E-2,6.382233E-2,1.2761499E-1,5.706468E-2,6.4301025E-3,-4.1852195E-2,-5.0497692E-2,-8.639529E-2,-2.2331007E-2,1.7504921E-2,2.234865E-3,-1.2881011E-2,-2.8342854E-2,-2.8294167E-2,-3.198078E-2,-3.675587E-2,-2.9822858E-2,-3.400247E-2,-3.174296E-2,-1.0784942E-2,-9.174612E-3,5.933485E-2,-4.226961E-2,-8.859974E-4,2.0890603E-2,-6.0884874E-2,-4.040377E-2,-1.3987643E-2,1.2721808E-2,1.0910968E-2,3.9986078E-2,3.5493936E-2,5.5107698E-2,1.4295535E-2,3.1336214E-2,-1.1774265E-2,-1.3279335E-2,-1.928872E-2,-1.3042472E-2,-2.3763416E-2,-2.6599264E-2],"categories":[],"categories_nodes":[],"categories_segments":[],"categories_sizes":[],"default_left":[0,0,0,0,0,0,0,0,0,0,0,0,0,0,0,0,0,0,0,0,0,0,0,0,0,0,0,0,0,0,0,0,0,0,0,0,0,0,0,0,0,0,0,0,0,0,0,0,0,0,0,0,0,0,0,0,0,0,0,0,0,0,0,0,0,0,0,0,0,0,0,0,0,0,0,0,0,0,0,0,0,0,0,0,0,0,0],"id":5,"left_children":[1,3,5,7,9,11,13,15,17,19,21,23,25,27,29,31,33,35,37,39,41,-1,-1,43,45,47,49,51,53,55,57,-1,59,61,63,-1,-1,-1,-1,-1,-1,-1,65,67,69,71,73,75,77,79,-1,81,83,85,-1,-1,-1,-1,-1,-1,-1,-1,-1,-1,-1,-1,-1,-1,-1,-1,-1,-1,-1,-1,-1,-1,-1,-1,-1,-1,-1,-1,-1,-1,-1,-1,-1],"loss_changes":[1.0269792E2,3.361763E0,2.2480345E1,1.1916885E0,7.0789456E-1,3.422413E1,1.2928572E0,8.773804E-2,4.4954443E-1,2.5471687E-2,4.8806667E-3,1.8827896E1,4.037323E0,6.9257164E-1,2.0901806E0,7.742119E-2,5.531311E-2,9.9576116E-2,3.7493706E-3,2.6071072E-3,2.0635128E-4,0E0,0E0,6.8143377E0,1.3968756E1,4.314171E0,2.1820164E-1,1.6070843E-2,1.6269684E-2,2.5929323E-1,2.6488388E-1,0E0,6.336784E-2,7.590675E-2,2.245903E-2,0E0,0E0,0E0,0E0,0E0,0E0,0E0,1.8303692E-3,3.29106E1,1.2766637E1,6.039524E-1,6.373244E0,2.697332E0,2.1993332E0,5.383377E-1,0E0,8.262396E-4,5.6411147E-2,6.2618256E-3,0E0,0E0,0E0,0E0,0E0,0E0,0E0,0E0,0E0,0E0,0E0,0E0,0E0,0E0,0E0,0E0,0E0,0E0,0E0,0E0,0E0,0E0,0E0,0E0,0E0,0E0,0E0,0E0,0E0,0E0,0E0,0E0,0E0],"parents":[2147483647,0,0,1,1,2,2,3,3,4,4,5,5,6,6,7,7,8,8,9,9,10,10,11,11,12,12,13,13,14,14,15,15,16,16,17,17,18,18,19,19,20,20,23,23,24,24,25,25,26,26,27,27,28,28,29,29,30,30,32,32,33,33,34,34,42,42,43,43,44,44,45,45,46,46,47,47,48,48,49,49,51,51,52,52,53,53],"right_children":[2,4,6,8,10,12,14,16,18,20,22,24,26,28,30,32,34,36,38,40,42,-1,-1,44,46,48,50,52,54,56,58,-1,60,62,64,-1,-1,-1,-1,-1,-1,-1,66,68,70,72,74,76,78,80,-1,82,84,86,-1,-1,-1,-1,-1,-1,-1,-1,-1,-1,-1,-1,-1,-1,-1,-1,-1,-1,-1,-1,-1,-1,-1,-1,-1,-1,-1,-1,-1,-1,-1,-1,-1],"split_conditions":[6E0,5E0,2.2E1,6E0,5E0,1.7E1,5E0,2E0,2E0,2E0,6E0,1.4E1,2.1E1,2.3E1,6E0,1E0,3E0,1E0,3E0,1E0,3E0,-2.4175636E-2,-2.7501287E-2,7E0,1E0,1.8E1,6E0,2E0,4E0,2.3E1,2.3E1,-3.5369173E-2,3E0,5E0,3E0,-8.956495E-3,-1.8498637E-2,-2.4891907E-2,-2.7698744E-2,-1.3818926E-2,-1.1839827E-2,-9.089497E-3,4E0,5E0,4E0,1.6E1,5E0,5E0,6E0,5E0,6.4301025E-3,1E0,3E0,1E0,-2.2331007E-2,1.7504921E-2,2.234865E-3,-1.2881011E-2,-2.8342854E-2,-2.8294167E-2,-3.198078E-2,-3.675587E-2,-2.9822858E-2,-3.400247E-2,-3.174296E-2,-1.0784942E-2,-9.174612E-3,5.933485E-2,-4.226961E-2,-8.859974E-4,2.0890603E-2,-6.0884874E-2,-4.040377E-2,-1.3987643E-2,1.2721808E-2,1.0910968E-2,3.9986078E-2,3.5493936E-2,5.5107698E-2,1.4295535E-2,3.1336214E-2,-1.1774265E-2,-1.3279335E-2,-1.928872E-2,-1.3042472E-2,-2.3763416E-2,-2.6599264E-2],"split_indices":[0,0,0,1,1,0,1,0,0,1,1,0,0,0,1,1,0,0,0,1,1,0,0,0,1,0,1,1,1,0,0,0,1,1,1,0,0,0,0,0,0,0,1,1,1,0,1,1,1,1,0,1,1,1,0,0,0,0,0,0,0,0,0,0,0,0,0,0,0,0,0,0,0,0,0,0,0,0,0,0,0,0,0,0,0,0,0],"split_type":[0,0,0,0,0,0,0,0,0,0,0,0,0,0,0,0,0,0,0,0,0,0,0,0,0,0,0,0,0,0,0,0,0,0,0,0,0,0,0,0,0,0,0,0,0,0,0,0,0,0,0,0,0,0,0,0,0,0,0,0,0,0,0,0,0,0,0,0,0,0,0,0,0,0,0,0,0,0,0,0,0,0,0,0,0,0,0],"sum_hessian":[3.3991E4,8.494E3,2.5497E4,7.08E3,1.414E3,2.2659E4,2.838E3,6.08E3,1E3,1.015E3,3.99E2,1.5567E4,7.092E3,2.034E3,8.04E2,2.434E3,3.646E3,4E2,6E2,4.06E2,6.09E2,1.99E2,2E2,1.132E4,4.247E3,5.673E3,1.419E3,1.017E3,1.017E3,4E2,4.04E2,4.04E2,2.03E3,1.217E3,2.429E3,2E2,2E2,2E2,4E2,2.02E2,2.04E2,2.03E2,4.06E2,1.414E3,9.906E3,6.12E2,3.635E3,1.416E3,4.257E3,1.217E3,2.02E2,4.07E2,6.1E2,8.14E2,2.03E2,2E2,2E2,2.02E2,2.02E2,8.14E2,1.216E3,1.016E3,2.01E2,1.218E3,1.211E3,2.02E2,2.04E2,1.015E3,3.99E2,5.684E3,4.222E3,4.08E2,2.04E2,2.436E3,1.199E3,1.016E3,4E2,3.654E3,6.03E2,1.017E3,2E2,2.04E2,2.03E2,2.03E2,4.07E2,2.04E2,6.1E2],"tree_param":{"num_deleted":"0","num_feature":"3","num_nodes":"87","size_leaf_vector":"1"}},{"base_weights":[-3.9092378E-5,-6.673348E-2,2.2181038E-2,-7.295325E-2,-3.5561137E-2,2.9543733E-2,-3.6593486E-2,-7.6637775E-2,-5.049709E-2,-2.5676442E-2,-6.0579352E-2,1.1169963E-2,6.986705E-2,-4.59946E-2,-1.278248E-2,-7.088293E-2,-7.80631E-2,-3.2179322E-2,-6.263507E-2,-3.006047E-2,-2.270927E-2,-1.6959207E-2,-1.9291945E-2,-4.9186513E-2,2.129116E-2,5.8960788E-2,9.749478E-2,-3.3014E-2,-5.8930013E-2,2.3136422E-2,-4.8315067E-2,-7.343509E-2,-1.7304836E-2,-7.935526E-2,-7.411705E-2,-6.2829163E-3,-1.2976648E-2,-1.7461484E-2,-1.9409839E-2,-9.693671E-3,-8.305211E-3,-6.376023E-3,-2.3383193E-2,1.863338E-2,-1.3020265E-1,6.3889034E-2,-2.2896708E-4,7.454046E-2,-3.2476888E-3,1.21265434E-1,6.180623E-2,-3.4703393E-2,-7.830862E-3,-6.0538482E-2,-1.5664548E-2,1.2279568E-2,1.5677538E-3,-9.035751E-3,-1.988189E-2,-2.3414414E-2,-2.1072637E-2,-2.2612065E-2,-2.4394788E-2,-2.484865E-2,-2.0892788E-2,-7.5654034E-3,-6.435663E-3,4.283729E-2,-1.8576105E-3,-4.1709065E-2,-2.8341765E-2,3.629476E-2,1.5348486E-2,-2.922427E-2,9.696704E-3,9.8912595E-3,3.0641409E-2,6.582402E-3,-6.022868E-3,4.467909E-2,2.8047372E-2,1.1065177E-2,2.591715E-2,-8.807388E-3,-1.1989131E-2,-1.6669167E-2,-1.8632539E-2],"categories":[],"categories_nodes":[],"categories_segments":[],"categories_sizes":[],"default_left":[0,0,0,0,0,0,0,0,0,0,0,0,0,0,0,0,0,0,0,0,0,0,0,0,0,0,0,0,0,0,0,0,0,0,0,0,0,0,0,0,0,0,0,0,0,0,0,0,0,0,0,0,0,0,0,0,0,0,0,0,0,0,0,0,0,0,0,0,0,0,0,0,0,0,0,0,0,0,0,0,0,0,0,0,0,0,0],"id":6,"left_children":[1,3,5,7,9,11,13,15,17,19,21,23,25,27,29,31,33,35,37,39,41,-1,-1,43,45,47,49,51,53,55,57,59,-1,61,63,-1,-1,-1,-1,-1,-1,-1,65,67,69,71,73,75,77,79,81,83,-1,85,-1,-1,-1,-1,-1,-1,-1,-1,-1,-1,-1,-1,-1,-1,-1,-1,-1,-1,-1,-1,-1,-1,-1,-1,-1,-1,-1,-1,-1,-1,-1,-1,-1],"loss_changes":[5.0376194E1,1.644455E0,1.1035059E1,5.82016E-1,3.4837008E-1,1.6787823E1,6.3492227E-1,4.4345856E-2,2.2054791E-1,1.2533665E-2,2.4007559E-3,9.511222E0,2.1314812E0,3.397498E-1,1.0285325E0,3.6797047E-2,1.8918991E-2,4.900047E-2,1.7306805E-3,1.2834072E-3,1.0150671E-4,0E0,0E0,1.2288141E1,1.2222532E1,4.931469E0,1.6942768E0,1.098001E-2,7.8344345E-3,1.2759566E-1,1.3034171E-1,9.497166E-3,0E0,2.236557E-2,4.1592598E-2,0E0,0E0,0E0,0E0,0E0,0E0,0E0,9.010285E-4,3.7550812E0,3.082676E-1,3.2455826E0,2.8028664E1,4.664671E0,4.328129E-1,9.104233E-1,4.894216E-1,2.1743655E-2,0E0,2.9139519E-3,0E0,0E0,0E0,0E0,0E0,0E0,0E0,0E0,0E0,0E0,0E0,0E0,0E0,0E0,0E0,0E0,0E0,0E0,0E0,0E0,0E0,0E0,0E0,0E0,0E0,0E0,0E0,0E0,0E0,0E0,0E0,0E0,0E0],"parents":[2147483647,0,0,1,1,2,2,3,3,4,4,5,5,6,6,7,7,8,8,9,9,10,10,11,11,12,12,13,13,14,14,15,15,16,16,17,17,18,18,19,19,20,20,23,23,24,24,25,25,26,26,27,27,28,28,29,29,30,30,31,31,33,33,34,34,42,42,43,43,44,44,45,45,46,46,47,47,48,48,49,49,50,50,51,51,53,53],"right_children":[2,4,6,8,10,12,14,16,18,20,22,24,26,28,30,32,34,36,38,40,42,-1,-1,44,46,48,50,52,54,56,58,60,-1,62,64,-1,-1,-1,-1,-1,-1,-1,66,68,70,72,74,76,78,80,82,84,-1,86,-1,-1,-1,-1,-1,-1,-1,-1,-1,-1,-1,-1,-1,-1,-1,-1,-1,-1,-1,-1,-1,-1,-1,-1,-1,-1,-1,-1,-1,-1,-1,-1,-1],"split_conditions":[6E0,5E0,2.2E1,6E0,5E0,1.7E1,5E0,1E0,2E0,2E0,6E0,1E0,5E0,2.3E1,6E0,5E0,4E0,1E0,3E0,1E0,3E0,-1.6959207E-2,-1.9291945E-2,1.2E1,3E0,4E0,2E1,4E0,4E0,2.3E1,2.3E1,2E0,-1.7304836E-2,2E0,2E0,-6.2829163E-3,-1.2976648E-2,-1.7461484E-2,-1.9409839E-2,-9.693671E-3,-8.305211E-3,-6.376023E-3,4E0,7E0,1.6E1,8E0,4E0,1.9E1,1.9E1,6E0,6E0,2E0,-7.830862E-3,1E0,-1.5664548E-2,1.2279568E-2,1.5677538E-3,-9.035751E-3,-1.988189E-2,-2.3414414E-2,-2.1072637E-2,-2.2612065E-2,-2.4394788E-2,-2.484865E-2,-2.0892788E-2,-7.5654034E-3,-6.435663E-3,4.283729E-2,-1.8576105E-3,-4.1709065E-2,-2.8341765E-2,3.629476E-2,1.5348486E-2,-2.922427E-2,9.696704E-3,9.8912595E-3,3.0641409E-2,6.582402E-3,-6.022868E-3,4.467909E-2,2.8047372E-2,1.1065177E-2,2.591715E-2,-8.807388E-3,-1.1989131E-2,-1.6669167E-2,-1.8632539E-2],"split_indices":[0,0,0,1,1,0,1,0,0,1,1,1,1,0,1,1,0,0,0,1,1,0,0,0,1,1,0,1,1,0,0,1,0,0,1,0,0,0,0,0,0,0,1,0,0,0,1,0,0,1,1,1,0,1,0,0,0,0,0,0,0,0,0,0,0,0,0,0,0,0,0,0,0,0,0,0,0,0,0,0,0,0,0,0,0,0,0],"split_type":[0,0,0,0,0,0,0,0,0,0,0,0,0,0,0,0,0,0,0,0,0,0,0,0,0,0,0,0,0,0,0,0,0,0,0,0,0,0,0,0,0,0,0,0,0,0,0,0,0,0,0,0,0,0,0,0,0,0,0,0,0,0,0,0,0,0,0,0,0,0,0,0,0,0,0,0,0,0,0,0,0,0,0,0,0,0,0],"sum_hessian":[3.3991E4,8.494E3,2.5497E4,7.08E3,1.414E3,2.2659E4,2.838E3,6.08E3,1E3,1.015E3,3.99E2,1.5567E4,7.092E3,2.034E3,8.04E2,1.217E3,4.863E3,4E2,6E2,4.06E2,6.09E2,1.99E2,2E2,2.235E3,1.3332E4,5.087E3,2.005E3,1.017E3,1.017E3,4E2,4.04E2,1.016E3,2.01E2,3.649E3,1.214E3,2E2,2E2,2E2,4E2,2.02E2,2.04E2,2.03E2,4.06E2,1.217E3,1.018E3,4.474E3,8.858E3,4.068E3,1.019E3,1.202E3,8.03E2,8.14E2,2.03E2,8.14E2,2.03E2,2E2,2E2,2.02E2,2.02E2,4.06E2,6.1E2,1.217E3,2.432E3,4.06E2,8.08E2,2.02E2,2.04E2,2.02E2,1.015E3,8.14E2,2.04E2,8.14E2,3.66E3,2.222E3,6.636E3,1.624E3,2.444E3,4.08E2,6.11E2,6E2,6.02E2,4E2,4.03E2,4.07E2,4.07E2,2.04E2,6.1E2],"tree_param":{"num_deleted":"0","num_feature":"3","num_nodes":"87","size_leaf_vector":"1"}},{"base_weights":[-3.4017434E-5,-4.674702E-2,1.5529047E-2,-5.109702E-2,-2.4945538E-2,2.0687401E-2,-2.564878E-2,-5.367186E-2,-3.5404034E-2,-1.8011281E-2,-4.2496186E-2,9.489242E-3,5.4185525E-2,-3.223534E-2,-8.9664245E-3,-5.466901E-2,-4.856287E-2,-2.2573542E-2,-4.3905906E-2,-2.1086553E-2,-1.592989E-2,-1.1896889E-2,-1.353316E-2,-3.342844E-2,1.6688256E-2,6.74091E-2,1.4495275E-2,-2.3137936E-2,-4.1301075E-2,1.6230077E-2,-3.389193E-2,-5.1448308E-2,-5.546153E-2,-4.4372663E-2,-5.4784227E-2,-4.407412E-3,-9.1030225E-3,-1.2249102E-2,-1.360141E-2,-6.7998925E-3,-5.8258055E-3,-4.472591E-3,-1.6402634E-2,1.3077038E-2,-7.971647E-2,4.521006E-2,2.2825021E-3,6.177622E-2,1.0138387E-1,-4.997477E-3,1.9735388E-2,-2.431791E-2,-5.4931194E-3,-4.242026E-2,-1.0988209E-2,8.614043E-3,1.0997793E-3,-6.338374E-3,-1.39467E-2,-1.640734E-2,-1.4761197E-2,-1.7311607E-2,-1.5956793E-2,-1.2139085E-2,-1.386658E-2,-1.9321028E-2,-1.3467334E-2,-5.30697E-3,-4.514375E-3,3.0049417E-2,-1.3008675E-3,-2.736318E-2,-6.65801E-3,1.7794073E-2,5.074336E-3,-1.8839747E-2,7.223381E-3,2.3159862E-2,9.198753E-3,1.1497266E-2,3.982211E-2,1.7525787E-2,3.5776997E-3,-6.1716554E-3,-8.401211E-3,-1.1692814E-2,-1.3051927E-2],"categories":[],"categories_nodes":[],"categories_segments":[],"categories_sizes":[],"default_left":[0,0,0,0,0,0,0,0,0,0,0,0,0,0,0,0,0,0,0,0,0,0,0,0,0,0,0,0,0,0,0,0,0,0,0,0,0,0,0,0,0,0,0,0,0,0,0,0,0,0,0,0,0,0,0,0,0,0,0,0,0,0,0,0,0,0,0,0,0,0,0,0,0,0,0,0,0,0,0,0,0,0,0,0,0,0,0],"id":7,"left_children":[1,3,5,7,9,11,13,15,17,19,21,23,25,27,29,31,33,35,37,39,41,-1,-1,43,45,47,49,51,53,55,57,59,61,63,65,-1,-1,-1,-1,-1,-1,-1,67,69,71,73,75,77,79,-1,81,83,-1,85,-1,-1,-1,-1,-1,-1,-1,-1,-1,-1,-1,-1,-1,-1,-1,-1,-1,-1,-1,-1,-1,-1,-1,-1,-1,-1,-1,-1,-1,-1,-1,-1,-1],"loss_changes":[2.4712824E1,8.0436134E-1,5.416557E0,2.8421974E-1,1.7144114E-1,8.499646E0,3.1165826E-1,2.8326035E-2,1.08201265E-1,6.167352E-3,1.1808872E-3,5.2480197E0,2.9785786E0,1.6688061E-1,5.061187E-1,1.0112762E-2,2.3689985E-2,2.411282E-2,7.959604E-4,6.3177943E-4,4.9963593E-5,0E0,0E0,5.2535E0,5.976118E0,8.0861473E-1,2.3214099E-1,5.35357E-3,3.7710667E-3,6.2788874E-2,6.41374E-2,4.7106743E-3,1.7651558E-2,2.495885E-3,3.507912E-2,0E0,0E0,0E0,0E0,0E0,0E0,0E0,4.4355541E-4,1.847508E0,8.065963E-1,1.946846E0,1.3711151E1,1.7515812E0,1.18922E0,0E0,3.6666977E-1,1.0676771E-2,0E0,1.3532639E-3,0E0,0E0,0E0,0E0,0E0,0E0,0E0,0E0,0E0,0E0,0E0,0E0,0E0,0E0,0E0,0E0,0E0,0E0,0E0,0E0,0E0,0E0,0E0,0E0,0E0,0E0,0E0,0E0,0E0,0E0,0E0,0E0,0E0],"parents":[2147483647,0,0,1,1,2,2,3,3,4,4,5,5,6,6,7,7,8,8,9,9,10,10,11,11,12,12,13,13,14,14,15,15,16,16,17,17,18,18,19,19,20,20,23,23,24,24,25,25,26,26,27,27,28,28,29,29,30,30,31,31,32,32,33,33,34,34,42,42,43,43,44,44,45,45,46,46,47,47,48,48,50,50,51,51,53,53],"right_children":[2,4,6,8,10,12,14,16,18,20,22,24,26,28,30,32,34,36,38,40,42,-1,-1,44,46,48,50,52,54,56,58,60,62,64,66,-1,-1,-1,-1,-1,-1,-1,68,70,72,74,76,78,80,-1,82,84,-1,86,-1,-1,-1,-1,-1,-1,-1,-1,-1,-1,-1,-1,-1,-1,-1,-1,-1,-1,-1,-1,-1,-1,-1,-1,-1,-1,-1,-1,-1,-1,-1,-1,-1],"split_conditions":[6E0,5E0,2.2E1,6E0,5E0,1.8E1,5E0,5E0,2E0,2E0,6E0,1E0,2.1E1,2.3E1,6E0,1E0,3E0,1E0,3E0,1E0,3E0,-1.1896889E-2,-1.353316E-2,1.2E1,3E0,6E0,1E0,4E0,4E0,2.3E1,2.3E1,2E0,3E0,1E0,4E0,-4.407412E-3,-9.1030225E-3,-1.2249102E-2,-1.360141E-2,-6.7998925E-3,-5.8258055E-3,-4.472591E-3,4E0,7E0,1.7E1,1.4E1,4E0,4E0,1.9E1,-4.997477E-3,2E0,2E0,-5.4931194E-3,1E0,-1.0988209E-2,8.614043E-3,1.0997793E-3,-6.338374E-3,-1.39467E-2,-1.640734E-2,-1.4761197E-2,-1.7311607E-2,-1.5956793E-2,-1.2139085E-2,-1.386658E-2,-1.9321028E-2,-1.3467334E-2,-5.30697E-3,-4.514375E-3,3.0049417E-2,-1.3008675E-3,-2.736318E-2,-6.65801E-3,1.7794073E-2,5.074336E-3,-1.8839747E-2,7.223381E-3,2.3159862E-2,9.198753E-3,1.1497266E-2,3.982211E-2,1.7525787E-2,3.5776997E-3,-6.1716554E-3,-8.401211E-3,-1.1692814E-2,-1.3051927E-2],"split_indices":[0,0,0,1,1,0,1,1,0,1,1,1,0,0,1,0,0,0,0,1,1,0,0,0,1,1,1,1,1,0,0,1,0,0,0,0,0,0,0,0,0,0,1,0,0,0,1,1,0,0,1,1,0,1,0,0,0,0,0,0,0,0,0,0,0,0,0,0,0,0,0,0,0,0,0,0,0,0,0,0,0,0,0,0,0,0,0],"split_type":[0,0,0,0,0,0,0,0,0,0,0,0,0,0,0,0,0,0,0,0,0,0,0,0,0,0,0,0,0,0,0,0,0,0,0,0,0,0,0,0,0,0,0,0,0,0,0,0,0,0,0,0,0,0,0,0,0,0,0,0,0,0,0,0,0,0,0,0,0,0,0,0,0,0,0,0,0,0,0,0,0,0,0,0,0,0,0],"sum_hessian":[3.3991E4,8.494E3,2.5497E4,7.08E3,1.414E3,2.2659E4,2.838E3,6.08E3,1E3,1.015E3,3.99E2,1.6983E4,5.676E3,2.034E3,8.04E2,5.079E3,1.001E3,4E2,6E2,4.06E2,6.09E2,1.99E2,2E2,2.439E3,1.4544E4,4.257E3,1.419E3,1.017E3,1.017E3,4E2,4.04E2,1.016E3,4.063E3,6.03E2,3.98E2,2E2,2E2,2E2,4E2,2.02E2,2.04E2,2.03E2,4.06E2,1.217E3,1.222E3,4.88E3,9.664E3,3.654E3,6.03E2,2.04E2,1.215E3,8.14E2,2.03E2,8.14E2,2.03E2,2E2,2E2,2.02E2,2.02E2,4.06E2,6.1E2,2.032E3,2.031E3,2.01E2,4.02E2,1.99E2,1.99E2,2.02E2,2.04E2,2.02E2,1.015E3,1.018E3,2.04E2,3.256E3,1.624E3,2.424E3,7.24E3,2.442E3,1.212E3,2.01E2,4.02E2,2.03E2,1.012E3,4.07E2,4.07E2,2.04E2,6.1E2],"tree_param":{"num_deleted":"0","num_feature":"3","num_nodes":"87","size_leaf_vector":"1"}},{"base_weights":[-2.8980621E-5,-3.2748215E-2,1.0871871E-2,-3.5790876E-2,-1.7498862E-2,4.1628825E-3,2.7914846E-2,-3.7590567E-2,-2.4822146E-2,-1.2634385E-2,-2.9810887E-2,6.315872E-2,-7.628821E-3,-7.224768E-2,4.040734E-2,-3.5441983E-2,-3.901481E-2,-1.5835186E-2,-3.0777134E-2,-1.4791612E-2,-1.1174344E-2,-8.345661E-3,-9.493405E-3,1.0850632E-1,4.046501E-2,-2.6463721E-2,1.3870271E-2,6.3130204E-3,-1.5023637E-1,4.904543E-2,3.1735487E-3,-4.0935747E-2,-3.2668184E-2,-3.533032E-2,-4.0847816E-2,-3.0917686E-3,-6.385709E-3,-8.59265E-3,-9.531159E-3,-4.769978E-3,-4.0865866E-3,-3.1373838E-3,-1.1505968E-2,5.660957E-2,1.4295463E-1,9.825523E-3,6.091678E-2,1.29486725E-5,-6.62317E-2,3.4200035E-2,-1.3251728E-2,-1.2547427E-2,1.632577E-2,-5.6537427E-2,-3.3380166E-2,-4.930105E-4,5.8030013E-2,2.7229521E-2,-2.0649865E-2,-1.1497229E-2,-1.3034047E-2,-4.6123583E-3,-1.1527453E-2,-9.565806E-3,-1.2637098E-2,-1.5352951E-2,-1.1209068E-2,-3.7227252E-3,-3.1666611E-3,2.1078993E-2,1.2843872E-2,4.585052E-2,3.6806773E-2,5.7839043E-3,1.1807163E-4,2.2498917E-2,1.4021194E-2,-1.4008598E-2,7.014431E-3,-3.2727677E-2,-7.125161E-3,1.3862653E-2,-4.1057887E-3,1.6298906E-3,-6.777647E-3,2.6761929E-2,-2.6923155E-2,2.6289131E-2,1.2340202E-2,1.7611133E-2,3.4155734E-3,-4.3810657E-3,-9.783296E-3],"categories":[],"categories_nodes":[],"categories_segments":[],"categories_sizes":[],"default_left":[0,0,0,0,0,0,0,0,0,0,0,0,0,0,0,0,0,0,0,0,0,0,0,0,0,0,0,0,0,0,0,0,0,0,0,0,0,0,0,0,0,0,0,0,0,0,0,0,0,0,0,0,0,0,0,0,0,0,0,0,0,0,0,0,0,0,0,0,0,0,0,0,0,0,0,0,0,0,0,0,0,0,0,0,0,0,0,0,0,0,0,0,0],"id":8,"left_children":[1,3,5,7,9,11,13,15,17,19,21,23,25,27,29,31,33,35,37,39,41,-1,-1,43,45,47,49,51,53,55,57,59,61,63,65,-1,-1,-1,-1,-1,-1,-1,67,69,71,73,75,77,79,81,83,-1,-1,-1,-1,85,87,89,91,-1,-1,-1,-1,-1,-1,-1,-1,-1,-1,-1,-1,-1,-1,-1,-1,-1,-1,-1,-1,-1,-1,-1,-1,-1,-1,-1,-1,-1,-1,-1,-1,-1,-1],"loss_changes":[1.2124199E1,3.9353085E-1,2.915354E0,1.388483E-1,8.436987E-2,1.2728999E1,9.014636E0,1.7225266E-2,5.308342E-2,3.0347556E-3,5.8087707E-4,3.1323233E0,6.1755996E0,4.896299E0,2.059554E0,3.5768747E-2,2.3188114E-2,1.186575E-2,3.6472082E-4,3.110245E-4,2.4594367E-5,0E0,0E0,1.8082666E0,1.273344E0,8.559217E0,3.9274087E0,9.2625064E-1,5.763073E-1,2.3135672E0,6.9228846E-1,3.6666393E-3,1.6098475E-1,2.717936E-2,8.550167E-2,0E0,0E0,0E0,0E0,0E0,0E0,0E0,2.1836162E-4,7.366085E-2,1.0338974E-1,7.26669E-2,2.3985767E-1,5.3287115E0,5.9130793E0,2.3416758E0,5.3276706E-1,0E0,0E0,0E0,0E0,6.4045997E0,2.1969633E0,2.9904237E-1,4.34224E-2,0E0,0E0,0E0,0E0,0E0,0E0,0E0,0E0,0E0,0E0,0E0,0E0,0E0,0E0,0E0,0E0,0E0,0E0,0E0,0E0,0E0,0E0,0E0,0E0,0E0,0E0,0E0,0E0,0E0,0E0,0E0,0E0,0E0,0E0],"parents":[2147483647,0,0,1,1,2,2,3,3,4,4,5,5,6,6,7,7,8,8,9,9,10,10,11,11,12,12,13,13,14,14,15,15,16,16,17,17,18,18,19,19,20,20,23,23,24,24,25,25,26,26,27,27,28,28,29,29,30,30,31,31,32,32,33,33,34,34,42,42,43,43,44,44,45,45,46,46,47,47,48,48,49,49,50,50,55,55,56,56,57,57,58,58],"right_children":[2,4,6,8,10,12,14,16,18,20,22,24,26,28,30,32,34,36,38,40,42,-1,-1,44,46,48,50,52,54,56,58,60,62,64,66,-1,-1,-1,-1,-1,-1,-1,68,70,72,74,76,78,80,82,84,-1,-1,-1,-1,86,88,90,92,-1,-1,-1,-1,-1,-1,-1,-1,-1,-1,-1,-1,-1,-1,-1,-1,-1,-1,-1,-1,-1,-1,-1,-1,-1,-1,-1,-1,-1,-1,-1,-1,-1,-1],"split_conditions":[6E0,5E0,5E0,6E0,5E0,9E0,8E0,2E0,2E0,2E0,6E0,7E0,1.7E1,6E0,2.1E1,2E0,2E0,1E0,3E0,1E0,3E0,-8.345661E-3,-9.493405E-3,2E0,2E0,3E0,2.1E1,7E0,7E0,1E1,6E0,1E0,3E0,4E0,3E0,-3.0917686E-3,-6.385709E-3,-8.59265E-3,-9.531159E-3,-4.769978E-3,-4.0865866E-3,-3.1373838E-3,4E0,1E0,4E0,1E0,8E0,1E0,4E0,4E0,2.2E1,-1.2547427E-2,1.632577E-2,-5.6537427E-2,-3.3380166E-2,6E0,1.4E1,2.2E1,2.3E1,-1.1497229E-2,-1.3034047E-2,-4.6123583E-3,-1.1527453E-2,-9.565806E-3,-1.2637098E-2,-1.5352951E-2,-1.1209068E-2,-3.7227252E-3,-3.1666611E-3,2.1078993E-2,1.2843872E-2,4.585052E-2,3.6806773E-2,5.7839043E-3,1.1807163E-4,2.2498917E-2,1.4021194E-2,-1.4008598E-2,7.014431E-3,-3.2727677E-2,-7.125161E-3,1.3862653E-2,-4.1057887E-3,1.6298906E-3,-6.777647E-3,2.6761929E-2,-2.6923155E-2,2.6289131E-2,1.2340202E-2,1.7611133E-2,3.4155734E-3,-4.3810657E-3,-9.783296E-3],"split_indices":[0,0,1,1,1,0,0,0,0,1,1,0,0,1,0,1,1,0,0,1,1,0,0,1,1,1,0,0,0,0,1,0,1,0,1,0,0,0,0,0,0,0,1,1,1,1,0,1,1,1,0,0,0,0,0,1,0,0,0,0,0,0,0,0,0,0,0,0,0,0,0,0,0,0,0,0,0,0,0,0,0,0,0,0,0,0,0,0,0,0,0,0,0],"split_type":[0,0,0,0,0,0,0,0,0,0,0,0,0,0,0,0,0,0,0,0,0,0,0,0,0,0,0,0,0,0,0,0,0,0,0,0,0,0,0,0,0,0,0,0,0,0,0,0,0,0,0,0,0,0,0,0,0,0,0,0,0,0,0,0,0,0,0,0,0,0,0,0,0,0,0,0,0,0,0,0,0,0,0,0,0,0,0,0,0,0,0,0,0],"sum_hessian":[3.3991E4,8.494E3,2.5497E4,7.08E3,1.414E3,1.8296E4,7.201E3,6.08E3,1E3,1.015E3,3.99E2,3.047E3,1.5249E4,7.98E2,6.403E3,2.434E3,3.646E3,4E2,6E2,4.06E2,6.09E2,1.99E2,2E2,1.015E3,2.032E3,8.128E3,7.121E3,3.98E2,4E2,5.197E3,1.206E3,8.12E2,1.622E3,1.218E3,2.428E3,2E2,2E2,2E2,4E2,2.02E2,2.04E2,2.03E2,4.06E2,4.06E2,6.09E2,8.14E2,1.218E3,4.88E3,3.248E3,4.07E3,3.051E3,1.99E2,1.99E2,2E2,2E2,7.98E2,4.399E3,6E2,6.06E2,4.06E2,4.06E2,4.06E2,1.216E3,8.12E2,4.06E2,6.09E2,1.819E3,2.02E2,2.04E2,2.02E2,2.04E2,4.05E2,2.04E2,4.06E2,4.08E2,6.09E2,6.09E2,1.627E3,3.253E3,1.616E3,1.632E3,3.254E3,8.16E2,1.017E3,2.034E3,3.98E2,4E2,1.597E3,2.802E3,2E2,4E2,4.04E2,2.02E2],"tree_param":{"num_deleted":"0","num_feature":"3","num_nodes":"93","size_leaf_vector":"1"}},{"base_weights":[-2.2570239E-5,-2.2941848E-2,7.6132948E-3,-2.5070142E-2,-1.22751435E-2,2.9204064E-3,1.9534728E-2,-2.70332E-2,-2.0076431E-2,-8.862641E-3,-2.0912211E-2,3.8009495E-2,-7.098209E-3,-5.0681178E-2,2.829222E-2,-2.626376E-2,-3.0066395E-2,-1.21139465E-2,-2.2063216E-2,-1.0375874E-2,-7.8384625E-3,-5.8544795E-3,-6.6595497E-3,7.6069176E-2,2.531463E-2,-2.7160782E-2,7.933569E-3,4.428586E-3,-1.0538969E-1,3.433921E-2,2.2271571E-3,-2.3046771E-2,-2.8398959E-2,-3.727035E-2,-2.5210794E-2,-5.0742636E-3,-2.1688594E-3,-1.933109E-2,-2.4781406E-2,-3.3460336E-3,-2.866583E-3,-2.2007746E-3,-8.071095E-3,3.9710082E-2,1.0020373E-1,2.0898948E-3,4.0826287E-2,-9.0506114E-4,-6.659248E-2,1.5850704E-2,-1.5817843E-2,-8.802035E-3,1.14525445E-2,-3.966058E-2,-2.341594E-2,-3.4527582E-4,4.062979E-2,1.909564E-2,-1.4478255E-2,-8.605558E-3,-5.2140006E-3,-1.0339323E-2,-7.603503E-3,-8.192569E-3,-1.4115099E-2,-7.118039E-3,-8.414572E-3,-6.314915E-3,-5.2667065E-3,-8.656107E-3,-6.1941515E-3,-2.6114075E-3,-2.2212924E-3,1.4786459E-2,9.009514E-3,3.2129243E-2,2.581859E-2,3.3886668E-3,-2.1222369E-3,1.5760295E-2,1.0480194E-2,-1.2155875E-2,5.6732055E-3,-3.0114146E-2,-9.924329E-3,-6.666364E-5,9.564485E-3,-2.8335862E-3,-6.6524586E-3,1.8753486E-2,-1.8866342E-2,1.8407336E-2,8.639459E-3,1.2354077E-2,2.3934531E-3,-3.0699938E-3,-6.8627736E-3],"categories":[],"categories_nodes":[],"categories_segments":[],"categories_sizes":[],"default_left":[0,0,0,0,0,0,0,0,0,0,0,0,0,0,0,0,0,0,0,0,0,0,0,0,0,0,0,0,0,0,0,0,0,0,0,0,0,0,0,0,0,0,0,0,0,0,0,0,0,0,0,0,0,0,0,0,0,0,0,0,0,0,0,0,0,0,0,0,0,0,0,0,0,0,0,0,0,0,0,0,0,0,0,0,0,0,0,0,0,0,0,0,0,0,0,0,0],"id":9,"left_children":[1,3,5,7,9,11,13,15,17,19,21,23,25,27,29,31,33,35,37,39,41,-1,-1,43,45,47,49,51,53,55,57,59,61,63,65,-1,-1,67,69,-1,-1,-1,71,73,75,77,79,81,83,85,87,-1,-1,-1,-1,89,91,93,95,-1,-1,-1,-1,-1,-1,-1,-1,-1,-1,-1,-1,-1,-1,-1,-1,-1,-1,-1,-1,-1,-1,-1,-1,-1,-1,-1,-1,-1,-1,-1,-1,-1,-1,-1,-1,-1,-1],"loss_changes":[5.9490643E0,1.9254494E-1,1.4264529E0,6.8871975E-2,4.15204E-2,6.4324713E0,4.4300528E0,1.1066198E-2,3.140384E-2,1.4932826E-3,2.8572977E-4,1.961647E0,4.29285E0,2.4094303E0,1.0092912E0,2.7233362E-2,3.4774482E-2,9.303208E-3,1.1410654E-2,1.531206E-4,1.21071935E-5,0E0,0E0,8.875718E-1,1.0983293E0,6.3122106E0,1.5305457E0,4.5581147E-1,2.8359604E-1,1.1341429E0,3.4040302E-1,5.1422834E-2,4.425001E-2,3.8562417E-2,1.9160211E-3,0E0,0E0,2.0806193E-3,1.2856066E-2,0E0,0E0,0E0,1.0749325E-4,3.6248982E-2,5.0251484E-2,1.03168845E-1,1.2427378E-1,2.874619E0,2.756052E0,1.572785E0,8.2229316E-2,0E0,0E0,0E0,0E0,3.1449826E0,1.077312E0,1.472319E-1,2.1403983E-2,0E0,0E0,0E0,0E0,0E0,0E0,0E0,0E0,0E0,0E0,0E0,0E0,0E0,0E0,0E0,0E0,0E0,0E0,0E0,0E0,0E0,0E0,0E0,0E0,0E0,0E0,0E0,0E0,0E0,0E0,0E0,0E0,0E0,0E0,0E0,0E0,0E0,0E0],"parents":[2147483647,0,0,1,1,2,2,3,3,4,4,5,5,6,6,7,7,8,8,9,9,10,10,11,11,12,12,13,13,14,14,15,15,16,16,17,17,18,18,19,19,20,20,23,23,24,24,25,25,26,26,27,27,28,28,29,29,30,30,31,31,32,32,33,33,34,34,37,37,38,38,42,42,43,43,44,44,45,45,46,46,47,47,48,48,49,49,50,50,55,55,56,56,57,57,58,58],"right_children":[2,4,6,8,10,12,14,16,18,20,22,24,26,28,30,32,34,36,38,40,42,-1,-1,44,46,48,50,52,54,56,58,60,62,64,66,-1,-1,68,70,-1,-1,-1,72,74,76,78,80,82,84,86,88,-1,-1,-1,-1,90,92,94,96,-1,-1,-1,-1,-1,-1,-1,-1,-1,-1,-1,-1,-1,-1,-1,-1,-1,-1,-1,-1,-1,-1,-1,-1,-1,-1,-1,-1,-1,-1,-1,-1,-1,-1,-1,-1,-1,-1],"split_conditions":[6E0,5E0,5E0,5E0,5E0,1E1,8E0,4E0,1E0,2E0,6E0,7E0,1.6E1,6E0,2.1E1,2E0,2E0,6E0,3E0,1E0,3E0,-5.8544795E-3,-6.6595497E-3,2E0,2E0,3E0,2.2E1,7E0,7E0,1E1,6E0,2E0,3E0,1E0,4E0,-5.0742636E-3,-2.1688594E-3,6E0,4E0,-3.3460336E-3,-2.866583E-3,-2.2007746E-3,4E0,1E0,4E0,1E0,8E0,1E0,4E0,1.9E1,2.3E1,-8.802035E-3,1.14525445E-2,-3.966058E-2,-2.341594E-2,6E0,1.4E1,2.2E1,2.3E1,-8.605558E-3,-5.2140006E-3,-1.0339323E-2,-7.603503E-3,-8.192569E-3,-1.4115099E-2,-7.118039E-3,-8.414572E-3,-6.314915E-3,-5.2667065E-3,-8.656107E-3,-6.1941515E-3,-2.6114075E-3,-2.2212924E-3,1.4786459E-2,9.009514E-3,3.2129243E-2,2.581859E-2,3.3886668E-3,-2.1222369E-3,1.5760295E-2,1.0480194E-2,-1.2155875E-2,5.6732055E-3,-3.0114146E-2,-9.924329E-3,-6.666364E-5,9.564485E-3,-2.8335862E-3,-6.6524586E-3,1.8753486E-2,-1.8866342E-2,1.8407336E-2,8.639459E-3,1.2354077E-2,2.3934531E-3,-3.0699938E-3,-6.8627736E-3],"split_indices":[0,0,1,1,1,0,0,1,0,1,1,0,0,1,0,0,0,1,0,1,1,0,0,1,1,1,0,0,0,0,1,1,0,0,0,0,0,1,0,0,0,0,1,1,1,1,0,1,1,0,0,0,0,0,0,1,0,0,0,0,0,0,0,0,0,0,0,0,0,0,0,0,0,0,0,0,0,0,0,0,0,0,0,0,0,0,0,0,0,0,0,0,0,0,0,0,0],"split_type":[0,0,0,0,0,0,0,0,0,0,0,0,0,0,0,0,0,0,0,0,0,0,0,0,0,0,0,0,0,0,0,0,0,0,0,0,0,0,0,0,0,0,0,0,0,0,0,0,0,0,0,0,0,0,0,0,0,0,0,0,0,0,0,0,0,0,0,0,0,0,0,0,0,0,0,0,0,0,0,0,0,0,0,0,0,0,0,0,0,0,0,0,0,0,0,0,0],"sum_hessian":[3.3991E4,8.494E3,2.5497E4,7.08E3,1.414E3,1.8296E4,7.201E3,5.079E3,2.001E3,1.015E3,3.99E2,4.063E3,1.4233E4,7.98E2,6.403E3,4.059E3,1.02E3,4.01E2,1.6E3,4.06E2,6.09E2,1.99E2,2E2,1.015E3,3.048E3,6.096E3,8.137E3,3.98E2,4E2,5.197E3,1.206E3,1.624E3,2.435E3,4.08E2,6.12E2,2.01E2,2E2,8.02E2,7.98E2,2.02E2,2.04E2,2.03E2,4.06E2,4.06E2,6.09E2,1.221E3,1.827E3,3.66E3,2.436E3,6.103E3,2.034E3,1.99E2,1.99E2,2E2,2E2,7.98E2,4.399E3,6E2,6.06E2,8.12E2,8.12E2,8.12E2,1.623E3,2.04E2,2.04E2,4.08E2,2.04E2,4.02E2,4E2,3.99E2,3.99E2,2.02E2,2.04E2,2.02E2,2.04E2,4.05E2,2.04E2,6.09E2,6.12E2,6.09E2,1.218E3,1.22E3,2.44E3,1.212E3,1.224E3,3.048E3,3.055E3,1.017E3,1.017E3,3.98E2,4E2,1.597E3,2.802E3,2E2,4E2,4.04E2,2.02E2],"tree_param":{"num_deleted":"0","num_feature":"3","num_nodes":"97","size_leaf_vector":"1"}},{"base_weights":[-1.8597902E-5,-1.6074484E-2,5.330636E-3,-1.7563684E-2,-8.610806E-3,4.3602928E-4,1.1435699E-2,-1.8493416E-2,-1.1898087E-2,-6.2168916E-3,-1.46698225E-2,6.909981E-3,-5.775674E-2,2.2042446E-2,-6.225802E-3,-2.1017201E-2,-1.7986605E-2,-7.399786E-3,-4.4638957E-3,-7.278386E-3,-5.498457E-3,-4.1069156E-3,-4.67162E-3,9.768331E-3,-1.5931442E-2,-4.8658174E-2,-3.3672716E-2,1.4479283E-3,3.0346006E-2,-2.3947041E-3,-1.3880915E-2,-1.945863E-2,-8.137478E-3,-1.8885128E-2,-1.4368553E-2,-1.5214483E-3,-2.9073788E-3,-2.34717E-3,-2.0108072E-3,-1.5437766E-3,-5.6616473E-3,1.6158802E-2,5.933752E-3,-1.0550138E-2,-1.26674315E-2,-5.762065E-2,-8.522099E-4,-2.4830205E-2,4.0750783E-2,2.3160437E-2,4.1272435E-2,-6.185522E-3,7.1912697E-3,-1.63109E-2,-1.058996E-2,-6.606442E-3,-5.0543225E-3,-4.208971E-3,-6.0307407E-3,-3.7804777E-3,-5.1002763E-3,-1.831847E-3,-1.558157E-3,8.6748665E-3,-1.8372137E-2,-4.313344E-4,1.518836E-2,5.6838315E-5,-5.740783E-3,-1.5991915E-2,-2.2334797E-2,-4.0786252E-3,-1.4163418E-2,1.9213835E-2,5.2067456E-3,1.210348E-2,-3.3087789E-3,1.8567853E-2,6.207925E-3,-2.067309E-4,-2.9547713E-3,6.5036286E-3,-2.1512678E-3,-4.1926964E-3,-5.1203147E-3,-2.3465226E-3,-4.8140874E-3],"categories":[],"categories_nodes":[],"categories_segments":[],"categories_sizes":[],"default_left":[0,0,0,0,0,0,0,0,0,0,0,0,0,0,0,0,0,0,0,0,0,0,0,0,0,0,0,0,0,0,0,0,0,0,0,0,0,0,0,0,0,0,0,0,0,0,0,0,0,0,0,0,0,0,0,0,0,0,0,0,0,0,0,0,0,0,0,0,0,0,0,0,0,0,0,0,0,0,0,0,0,0,0,0,0,0,0],"id":10,"left_children":[1,3,5,7,9,11,13,15,17,19,21,23,25,27,29,31,33,35,-1,37,39,-1,-1,41,43,45,-1,47,49,51,53,55,-1,57,59,-1,-1,-1,-1,-1,61,63,65,-1,67,69,-1,71,73,75,77,79,81,83,85,-1,-1,-1,-1,-1,-1,-1,-1,-1,-1,-1,-1,-1,-1,-1,-1,-1,-1,-1,-1,-1,-1,-1,-1,-1,-1,-1,-1,-1,-1,-1,-1],"loss_changes":[2.9195464E0,9.426999E-2,7.619234E-1,3.7078857E-2,2.0433046E-2,5.3323607E0,2.1255956E0,7.4002743E-3,1.331529E-2,7.347986E-4,1.4053285E-4,8.3173907E-1,6.9700384E-1,1.2122304E0,1.2484321E-1,9.096205E-3,1.6214013E-2,2.0902772E-3,0E0,7.537566E-5,5.958602E-6,0E0,0E0,2.7732253E-1,8.852154E-2,4.9917173E-1,0E0,2.10587E0,3.956895E-1,1.03209995E-1,1.1182964E-2,5.042255E-3,0E0,2.3708463E-2,4.497513E-3,0E0,0E0,0E0,0E0,0E0,5.2915886E-5,4.1933465E0,2.3316905E0,0E0,1.00882694E-1,6.986928E-2,0E0,3.066275E-1,4.4414806E-1,1.7924197E0,8.487015E-1,4.0972643E-2,1.6765317E-1,1.201868E-3,9.028807E-3,0E0,0E0,0E0,0E0,0E0,0E0,0E0,0E0,0E0,0E0,0E0,0E0,0E0,0E0,0E0,0E0,0E0,0E0,0E0,0E0,0E0,0E0,0E0,0E0,0E0,0E0,0E0,0E0,0E0,0E0,0E0,0E0],"parents":[2147483647,0,0,1,1,2,2,3,3,4,4,5,5,6,6,7,7,8,8,9,9,10,10,11,11,12,12,13,13,14,14,15,15,16,16,17,17,19,19,20,20,23,23,24,24,25,25,27,27,28,28,29,29,30,30,31,31,33,33,34,34,40,40,41,41,42,42,44,44,45,45,47,47,48,48,49,49,50,50,51,51,52,52,53,53,54,54],"right_children":[2,4,6,8,10,12,14,16,18,20,22,24,26,28,30,32,34,36,-1,38,40,-1,-1,42,44,46,-1,48,50,52,54,56,-1,58,60,-1,-1,-1,-1,-1,62,64,66,-1,68,70,-1,72,74,76,78,80,82,84,86,-1,-1,-1,-1,-1,-1,-1,-1,-1,-1,-1,-1,-1,-1,-1,-1,-1,-1,-1,-1,-1,-1,-1,-1,-1,-1,-1,-1,-1,-1,-1,-1],"split_conditions":[6E0,5E0,1.6E1,6E0,5E0,1.5E1,2.1E1,1E0,2E0,2E0,6E0,1.4E1,6E0,2E0,2.3E1,4E0,4E0,1E0,-4.4638957E-3,1E0,3E0,-4.1069156E-3,-4.67162E-3,9E0,1E0,5E0,-3.3672716E-2,1.9E1,5E0,5E0,4E0,2E0,-8.137478E-3,2E0,4E0,-1.5214483E-3,-2.9073788E-3,-2.34717E-3,-2.0108072E-3,-1.5437766E-3,4E0,6E0,6E0,-1.0550138E-2,3E0,4E0,-8.522099E-4,1.8E1,1E0,4E0,6E0,2E0,6E0,1E0,6E0,-6.606442E-3,-5.0543225E-3,-4.208971E-3,-6.0307407E-3,-3.7804777E-3,-5.1002763E-3,-1.831847E-3,-1.558157E-3,8.6748665E-3,-1.8372137E-2,-4.313344E-4,1.518836E-2,5.6838315E-5,-5.740783E-3,-1.5991915E-2,-2.2334797E-2,-4.0786252E-3,-1.4163418E-2,1.9213835E-2,5.2067456E-3,1.210348E-2,-3.3087789E-3,1.8567853E-2,6.207925E-3,-2.067309E-4,-2.9547713E-3,6.5036286E-3,-2.1512678E-3,-4.1926964E-3,-5.1203147E-3,-2.3465226E-3,-4.8140874E-3],"split_indices":[0,0,0,1,1,0,0,1,0,1,1,0,1,1,0,0,0,0,0,1,1,0,0,0,1,1,0,0,1,1,1,0,0,1,1,0,0,0,0,0,1,1,1,0,1,1,0,0,1,1,1,1,1,1,1,0,0,0,0,0,0,0,0,0,0,0,0,0,0,0,0,0,0,0,0,0,0,0,0,0,0,0,0,0,0,0,0],"split_type":[0,0,0,0,0,0,0,0,0,0,0,0,0,0,0,0,0,0,0,0,0,0,0,0,0,0,0,0,0,0,0,0,0,0,0,0,0,0,0,0,0,0,0,0,0,0,0,0,0,0,0,0,0,0,0,0,0,0,0,0,0,0,0,0,0,0,0,0,0,0,0,0,0,0,0,0,0,0,0,0,0,0,0,0,0,0,0],"sum_hessian":[3.3991E4,8.494E3,2.5497E4,7.08E3,1.414E3,1.4152E4,1.1345E4,6.08E3,1E3,1.015E3,3.99E2,1.2736E4,1.416E3,7.088E3,4.257E3,1.01E3,5.07E3,4E2,6E2,4.06E2,6.09E2,1.99E2,2E2,1.132E4,1.416E3,1.215E3,2.01E2,2.037E3,5.051E3,2.838E3,1.419E3,8.08E2,2.02E2,4.058E3,1.012E3,2E2,2E2,2.02E2,2.04E2,2.03E2,4.06E2,4.244E3,7.076E3,2.04E2,1.212E3,1.016E3,1.99E2,1.221E3,8.16E2,3.049E3,2.002E3,2.034E3,8.04E2,8.14E2,6.05E2,4.04E2,4.04E2,8.16E2,3.242E3,6.09E2,4.03E2,2.02E2,2.04E2,3.644E3,6E2,6.075E3,1.001E3,4.06E2,8.06E2,8.12E2,2.04E2,8.14E2,4.07E2,4.08E2,4.08E2,2.029E3,1.02E3,9.99E2,1.003E3,8.14E2,1.22E3,4E2,4.04E2,2.04E2,6.1E2,4.03E2,2.02E2],"tree_param":{"num_deleted":"0","num_feature":"3","num_nodes":"87","size_leaf_vector":"1"}},{"base_weights":[-1.670915E-5,-1.1259891E-2,3.729108E-3,-1.2301329E-2,-6.0403296E-3,-7.355435E-3,5.588968E-3,-1.3455247E-2,-9.367161E-3,-4.360969E-3,-1.0290804E-2,-1.4400178E-2,1.0894963E-2,7.090139E-3,-6.3961484E-3,-1.3001946E-2,-1.5244614E-2,-7.3742573E-3,-1.2358513E-2,-5.1055704E-3,-3.8570121E-3,-2.880994E-3,-3.2771036E-3,6.5486864E-3,-3.2270756E-2,4.48793E-2,-1.1797515E-2,2.6308775E-3,1.6879082E-2,-3.0794768E-3,-9.707561E-3,-1.0428489E-2,-1.4713302E-2,-2.0127796E-2,-1.1961636E-2,-4.725473E-3,-8.691115E-3,-1.4986981E-2,-9.699149E-3,-1.6464877E-3,-1.410503E-3,-1.0829188E-3,-3.9714808E-3,7.442549E-4,1.0618944E-2,-3.7051808E-2,-2.5861576E-2,1.1451337E-2,1.5410568E-2,-6.785792E-3,-6.3445447E-3,8.841287E-3,-1.3934354E-2,2.0234184E-2,3.4613379E-3,-9.363734E-3,8.197066E-5,-4.807326E-3,-8.425876E-3,-4.4085165E-3,-1.844729E-3,-3.3528057E-3,-5.4724235E-3,-3.946391E-3,-8.100832E-3,-3.1830478E-3,-4.379895E-3,-1.7592569E-3,-1.0672744E-3,-2.4069124E-3,-2.8012712E-3,-5.8237677E-3,-3.1526575E-3,-2.7300464E-3,-3.0740732E-3,-1.2850062E-3,-1.0929833E-3,2.460029E-3,-8.6809695E-3,-6.3641123E-3,-1.2681191E-2,-6.9487276E-3,-9.336169E-3,-8.564229E-4,-2.9410196E-3,6.2742145E-3,8.208204E-4,-7.334381E-3,2.1338935E-3,1.1386627E-3,7.0626345E-3,9.013653E-3,-5.686959E-4,-1.9124442E-3,-3.6920265E-3,5.602047E-4,-1.5797319E-3,-2.9826686E-3,-1.8317943E-3],"categories":[],"categories_nodes":[],"categories_segments":[],"categories_sizes":[],"default_left":[0,0,0,0,0,0,0,0,0,0,0,0,0,0,0,0,0,0,0,0,0,0,0,0,0,0,0,0,0,0,0,0,0,0,0,0,0,0,0,0,0,0,0,0,0,0,0,0,0,0,0,0,0,0,0,0,0,0,0,0,0,0,0,0,0,0,0,0,0,0,0,0,0,0,0,0,0,0,0,0,0,0,0,0,0,0,0,0,0,0,0,0,0,0,0,0,0,0,0],"id":11,"left_children":[1,3,5,7,9,11,13,15,17,19,21,23,25,27,29,31,33,35,37,39,41,-1,-1,43,45,47,49,51,53,55,57,59,61,63,65,67,69,71,73,-1,-1,-1,75,77,-1,79,81,-1,-1,-1,83,85,87,89,91,93,95,-1,97,-1,-1,-1,-1,-1,-1,-1,-1,-1,-1,-1,-1,-1,-1,-1,-1,-1,-1,-1,-1,-1,-1,-1,-1,-1,-1,-1,-1,-1,-1,-1,-1,-1,-1,-1,-1,-1,-1,-1,-1],"loss_changes":[1.4316118E0,4.610312E-2,5.257001E-1,2.3848772E-2,1.0055501E-2,4.7123504E-1,3.9289445E-1,3.9222836E-3,1.1843741E-2,3.6155805E-4,6.913394E-5,9.900413E-1,7.879132E-1,8.47012E-1,2.666945E-2,1.7727196E-2,1.6127259E-2,4.1585714E-3,5.4396912E-3,3.7107617E-5,2.9308721E-6,0E0,0E0,2.039217E-1,4.2768717E-2,1.5843451E-2,3.6030173E-2,1.3717805E0,2.73324E-1,2.4159465E-2,9.7099915E-3,2.9579401E-2,3.0197263E-2,1.925236E-2,2.0305738E-3,5.1375665E-4,2.7187914E-4,7.7233016E-3,3.7994236E-5,0E0,0E0,0E0,2.6053749E-5,2.2485217E-1,0E0,6.646824E-2,7.980585E-3,0E0,0E0,0E0,4.9089342E-3,7.147519E-1,8.047582E-1,2.640779E-1,1.7322892E-1,3.5017058E-3,7.7435058E-3,0E0,3.5028085E-3,0E0,0E0,0E0,0E0,0E0,0E0,0E0,0E0,0E0,0E0,0E0,0E0,0E0,0E0,0E0,0E0,0E0,0E0,0E0,0E0,0E0,0E0,0E0,0E0,0E0,0E0,0E0,0E0,0E0,0E0,0E0,0E0,0E0,0E0,0E0,0E0,0E0,0E0,0E0,0E0],"parents":[2147483647,0,0,1,1,2,2,3,3,4,4,5,5,6,6,7,7,8,8,9,9,10,10,11,11,12,12,13,13,14,14,15,15,16,16,17,17,18,18,19,19,20,20,23,23,24,24,25,25,26,26,27,27,28,28,29,29,30,30,31,31,32,32,33,33,34,34,35,35,36,36,37,37,38,38,42,42,43,43,45,45,46,46,50,50,51,51,52,52,53,53,54,54,55,55,56,56,58,58],"right_children":[2,4,6,8,10,12,14,16,18,20,22,24,26,28,30,32,34,36,38,40,42,-1,-1,44,46,48,50,52,54,56,58,60,62,64,66,68,70,72,74,-1,-1,-1,76,78,-1,80,82,-1,-1,-1,84,86,88,90,92,94,96,-1,98,-1,-1,-1,-1,-1,-1,-1,-1,-1,-1,-1,-1,-1,-1,-1,-1,-1,-1,-1,-1,-1,-1,-1,-1,-1,-1,-1,-1,-1,-1,-1,-1,-1,-1,-1,-1,-1,-1,-1,-1],"split_conditions":[6E0,5E0,1E0,5E0,5E0,1.9E1,2.2E1,4E0,3E0,2E0,6E0,1.2E1,2.1E1,1.7E1,2.3E1,2E0,2E0,1E0,4E0,1E0,3E0,-2.880994E-3,-3.2771036E-3,1.1E1,1.6E1,2E1,2.2E1,1.4E1,2.1E1,3E0,2E0,2E0,2E0,1E0,4E0,6E0,2E0,6E0,6E0,-1.6464877E-3,-1.410503E-3,-1.0829188E-3,4E0,1E1,1.0618944E-2,1.3E1,1.8E1,1.1451337E-2,1.5410568E-2,-6.785792E-3,2.3E1,3E0,1.6E1,2E0,2E0,2E0,6E0,-4.807326E-3,5E0,-4.4085165E-3,-1.844729E-3,-3.3528057E-3,-5.4724235E-3,-3.946391E-3,-8.100832E-3,-3.1830478E-3,-4.379895E-3,-1.7592569E-3,-1.0672744E-3,-2.4069124E-3,-2.8012712E-3,-5.8237677E-3,-3.1526575E-3,-2.7300464E-3,-3.0740732E-3,-1.2850062E-3,-1.0929833E-3,2.460029E-3,-8.6809695E-3,-6.3641123E-3,-1.2681191E-2,-6.9487276E-3,-9.336169E-3,-8.564229E-4,-2.9410196E-3,6.2742145E-3,8.208204E-4,-7.334381E-3,2.1338935E-3,1.1386627E-3,7.0626345E-3,9.013653E-3,-5.686959E-4,-1.9124442E-3,-3.6920265E-3,5.602047E-4,-1.5797319E-3,-2.9826686E-3,-1.8317943E-3],"split_indices":[0,0,1,1,1,0,0,1,0,1,1,0,0,0,0,0,0,0,0,1,1,0,0,0,0,0,0,0,0,1,1,1,1,0,0,1,0,1,1,0,0,0,1,0,0,0,0,0,0,0,0,1,0,1,1,1,1,0,1,0,0,0,0,0,0,0,0,0,0,0,0,0,0,0,0,0,0,0,0,0,0,0,0,0,0,0,0,0,0,0,0,0,0,0,0,0,0,0,0],"split_type":[0,0,0,0,0,0,0,0,0,0,0,0,0,0,0,0,0,0,0,0,0,0,0,0,0,0,0,0,0,0,0,0,0,0,0,0,0,0,0,0,0,0,0,0,0,0,0,0,0,0,0,0,0,0,0,0,0,0,0,0,0,0,0,0,0,0,0,0,0,0,0,0,0,0,0,0,0,0,0,0,0,0,0,0,0,0,0,0,0,0,0,0,0,0,0,0,0,0,0],"sum_hessian":[3.3991E4,8.494E3,2.5497E4,7.08E3,1.414E3,3.663E3,2.1834E4,5.079E3,2.001E3,1.015E3,3.99E2,2.643E3,1.02E3,1.9404E4,2.43E3,4.059E3,1.02E3,1.203E3,7.98E2,4.06E2,6.09E2,1.99E2,2E2,1.217E3,1.426E3,4.08E2,6.12E2,1.3332E4,6.072E3,1.215E3,1.215E3,1.624E3,2.435E3,4.08E2,6.12E2,4.01E2,8.02E2,3.99E2,3.99E2,2.02E2,2.04E2,2.03E2,4.06E2,1.014E3,2.03E2,8.14E2,6.12E2,2.04E2,2.04E2,2.04E2,4.08E2,9.697E3,3.635E3,4.857E3,1.215E3,4.06E2,8.09E2,2.03E2,1.012E3,8.12E2,8.12E2,1.218E3,1.217E3,2.04E2,2.04E2,4.08E2,2.04E2,2.01E2,2E2,4.01E2,4.01E2,1.99E2,2E2,1.99E2,2E2,2.02E2,2.04E2,8.11E2,2.03E2,2.03E2,6.11E2,4.08E2,2.04E2,2.04E2,2.04E2,3.256E3,6.441E3,2.424E3,1.211E3,8.14E2,4.043E3,2.03E2,1.012E3,2.03E2,2.03E2,6.07E2,2.02E2,6.1E2,4.02E2],"tree_param":{"num_deleted":"0","num_feature":"3","num_nodes":"99","size_leaf_vector":"1"}},{"base_weights":[-1.4140741E-5,-7.89019E-3,2.6098709E-3,-8.619055E-3,-4.2371955E-3,3.3312517E-5,9.155369E-3,-9.425505E-3,-6.568413E-3,-3.059106E-3,-7.218949E-3,4.133202E-2,-2.3946196E-3,-5.284069E-2,1.27992425E-2,-1.0274598E-2,-8.1468085E-3,-5.168655E-3,-8.669465E-3,-3.581433E-3,-2.7055875E-3,-2.021018E-3,-2.2988573E-3,1.4836229E-2,5.8942605E-2,8.759816E-3,-4.783792E-3,-9.009099E-3,-2.2582406E-2,-4.9089594E-3,1.6581194E-2,-8.054387E-3,-1.3587424E-2,-1.3322824E-2,-6.8541598E-3,-3.3148795E-3,-6.0902606E-3,-1.0513325E-2,-6.8039303E-3,-1.1549828E-3,-9.894219E-4,-7.5964216E-4,-2.7858766E-3,7.0483624E-3,1.8570055E-3,1.3302284E-2,6.611656E-2,-8.539083E-3,2.0319168E-2,2.5272283E-3,-1.5755905E-2,3.1734735E-2,-4.136157E-2,3.474326E-2,9.337603E-3,-1.8304818E-3,-3.5830636E-3,-3.7566023E-3,-4.704702E-3,-3.2666242E-3,-4.7073816E-3,-2.5736492E-3,-1.535685E-3,-1.2341007E-3,-7.4868737E-4,-1.6866354E-3,-1.962976E-3,-4.0853755E-3,-2.2115624E-3,-1.9151286E-3,-2.1564474E-3,-9.0139935E-4,-7.666902E-4,2.4341168E-2,1.5275973E-2,-5.2119485E-5,-5.0548697E-3,3.0021172E-3,7.638836E-3,6.123997E-3,-7.0549746E-4,-1.1260811E-2,1.792878E-3,5.199479E-3,1.1662445E-2,-8.337546E-3,-2.0468337E-2,4.589595E-3,2.78244E-2,6.748123E-3,-1.1194901E-3],"categories":[],"categories_nodes":[],"categories_segments":[],"categories_sizes":[],"default_left":[0,0,0,0,0,0,0,0,0,0,0,0,0,0,0,0,0,0,0,0,0,0,0,0,0,0,0,0,0,0,0,0,0,0,0,0,0,0,0,0,0,0,0,0,0,0,0,0,0,0,0,0,0,0,0,0,0,0,0,0,0,0,0,0,0,0,0,0,0,0,0,0,0,0,0,0,0,0,0,0,0,0,0,0,0,0,0,0,0,0,0],"id":12,"left_children":[1,3,5,7,9,11,13,15,17,19,21,23,25,27,29,31,33,35,37,39,41,-1,-1,43,45,47,49,-1,-1,51,53,55,57,59,61,63,65,67,69,-1,-1,-1,71,-1,-1,-1,73,75,77,79,81,83,85,87,89,-1,-1,-1,-1,-1,-1,-1,-1,-1,-1,-1,-1,-1,-1,-1,-1,-1,-1,-1,-1,-1,-1,-1,-1,-1,-1,-1,-1,-1,-1,-1,-1,-1,-1,-1,-1],"loss_changes":[7.0252794E-1,2.2581756E-2,4.3001992E-1,1.1648238E-2,4.948491E-3,1.8347477E0,1.6276498E0,5.431801E-3,5.8429986E-3,1.7791707E-4,3.4000725E-5,4.7319758E-1,4.6060497E-1,2.024306E-1,4.5568895E-1,2.2316486E-2,1.3504311E-2,2.0367876E-3,2.676852E-3,1.8268824E-5,1.4402904E-6,0E0,0E0,3.0323237E-2,6.096673E-2,6.0986394E-1,1.1418535E0,0E0,0E0,1.6015512E0,7.37193E-1,1.38102025E-2,2.5310665E-3,2.1639615E-3,4.8281476E-3,2.5280705E-4,1.334995E-4,3.8007833E-3,1.8689781E-5,0E0,0E0,0E0,1.2823613E-5,0E0,0E0,0E0,8.877194E-2,8.4950656E-2,9.670514E-2,7.455462E-1,2.694415E0,6.0824275E-2,2.172091E-1,1.8009324E0,6.893942E-1,0E0,0E0,0E0,0E0,0E0,0E0,0E0,0E0,0E0,0E0,0E0,0E0,0E0,0E0,0E0,0E0,0E0,0E0,0E0,0E0,0E0,0E0,0E0,0E0,0E0,0E0,0E0,0E0,0E0,0E0,0E0,0E0,0E0,0E0,0E0,0E0],"parents":[2147483647,0,0,1,1,2,2,3,3,4,4,5,5,6,6,7,7,8,8,9,9,10,10,11,11,12,12,13,13,14,14,15,15,16,16,17,17,18,18,19,19,20,20,23,23,24,24,25,25,26,26,29,29,30,30,31,31,32,32,33,33,34,34,35,35,36,36,37,37,38,38,42,42,46,46,47,47,48,48,49,49,50,50,51,51,52,52,53,53,54,54],"right_children":[2,4,6,8,10,12,14,16,18,20,22,24,26,28,30,32,34,36,38,40,42,-1,-1,44,46,48,50,-1,-1,52,54,56,58,60,62,64,66,68,70,-1,-1,-1,72,-1,-1,-1,74,76,78,80,82,84,86,88,90,-1,-1,-1,-1,-1,-1,-1,-1,-1,-1,-1,-1,-1,-1,-1,-1,-1,-1,-1,-1,-1,-1,-1,-1,-1,-1,-1,-1,-1,-1,-1,-1,-1,-1,-1,-1],"split_conditions":[6E0,5E0,5E0,5E0,5E0,7E0,7E0,3E0,3E0,2E0,6E0,2E0,1E1,6E0,1E1,3E0,1E0,1E0,4E0,1E0,3E0,-2.021018E-3,-2.2988573E-3,1E0,3E0,2E0,3E0,-9.009099E-3,-2.2582406E-2,6E0,1.4E1,2E0,2E0,4E0,3E0,6E0,2E0,6E0,6E0,-1.1549828E-3,-9.894219E-4,-7.5964216E-4,4E0,7.0483624E-3,1.8570055E-3,1.3302284E-2,4E0,1E0,3E0,1.3E1,1.7E1,8E0,9E0,1.3E1,6E0,-1.8304818E-3,-3.5830636E-3,-3.7566023E-3,-4.704702E-3,-3.2666242E-3,-4.7073816E-3,-2.5736492E-3,-1.535685E-3,-1.2341007E-3,-7.4868737E-4,-1.6866354E-3,-1.962976E-3,-4.0853755E-3,-2.2115624E-3,-1.9151286E-3,-2.1564474E-3,-9.0139935E-4,-7.666902E-4,2.4341168E-2,1.5275973E-2,-5.2119485E-5,-5.0548697E-3,3.0021172E-3,7.638836E-3,6.123997E-3,-7.0549746E-4,-1.1260811E-2,1.792878E-3,5.199479E-3,1.1662445E-2,-8.337546E-3,-2.0468337E-2,4.589595E-3,2.78244E-2,6.748123E-3,-1.1194901E-3],"split_indices":[0,0,1,1,1,0,0,0,0,1,1,1,0,1,0,1,1,0,0,1,1,0,0,1,1,1,1,0,0,1,0,0,0,0,1,1,0,1,1,0,0,0,1,0,0,0,1,1,1,0,0,0,0,0,1,0,0,0,0,0,0,0,0,0,0,0,0,0,0,0,0,0,0,0,0,0,0,0,0,0,0,0,0,0,0,0,0,0,0,0,0],"split_type":[0,0,0,0,0,0,0,0,0,0,0,0,0,0,0,0,0,0,0,0,0,0,0,0,0,0,0,0,0,0,0,0,0,0,0,0,0,0,0,0,0,0,0,0,0,0,0,0,0,0,0,0,0,0,0,0,0,0,0,0,0,0,0,0,0,0,0,0,0,0,0,0,0,0,0,0,0,0,0,0,0,0,0,0,0,0,0,0,0,0,0],"sum_hessian":[3.3991E4,8.494E3,2.5497E4,7.08E3,1.414E3,1.8296E4,7.201E3,5.079E3,2.001E3,1.015E3,3.99E2,1.015E3,1.7281E4,3.99E2,6.802E3,3.048E3,2.031E3,1.203E3,7.98E2,4.06E2,6.09E2,1.99E2,2E2,4.06E2,6.09E2,3.048E3,1.4233E4,1.99E2,2E2,1.197E3,5.605E3,1.827E3,1.221E3,4.04E2,1.627E3,4.01E2,8.02E2,3.99E2,3.99E2,2.02E2,2.04E2,2.03E2,4.06E2,2.02E2,2.04E2,2.03E2,4.06E2,1.221E3,1.827E3,8.542E3,5.691E3,5.97E2,6E2,1.597E3,4.008E3,1.218E3,6.09E2,8.14E2,4.07E2,2.02E2,2.02E2,8.14E2,8.13E2,2.01E2,2E2,4.01E2,4.01E2,1.99E2,2E2,1.99E2,2E2,2.02E2,2.04E2,2.02E2,2.04E2,6.09E2,6.12E2,6.09E2,1.218E3,1.83E3,6.712E3,2.842E3,2.849E3,1.99E2,3.98E2,4E2,2E2,1.197E3,4E2,1.997E3,2.011E3],"tree_param":{"num_deleted":"0","num_feature":"3","num_nodes":"91","size_leaf_vector":"1"}},{"base_weights":[-9.699044E-6,-2.5542262E-3,5.069264E-3,-7.4628525E-4,-2.9640915E-2,1.0551997E-2,-4.059944E-3,-5.529117E-3,2.4437045E-3,-2.2858264E-2,-2.1097321E-2,6.911724E-4,1.4527811E-2,-2.1775144E-3,-7.820617E-3,-6.0392614E-3,-2.9723234E-3,-7.742638E-3,4.1502295E-3,-3.842443E-2,-1.4979582E-2,-1.3545398E-2,2.1984193E-2,2.2927687E-2,8.8823335E-3,-4.141212E-3,2.7893204E-3,-6.9218352E-3,-8.488933E-3,-6.6029592E-3,-4.605882E-3,-2.1458725E-3,-5.0640786E-3,1.4034726E-3,-2.596231E-2,1.1466588E-2,4.5211034E-4,-8.935992E-3,-1.4074862E-2,6.744856E-4,-2.0754345E-2,-6.1537004E-3,-2.8277475E-2,3.2184936E-2,1.1729699E-2,7.7921604E-3,8.3079726E-2,1.8199341E-2,-2.8308105E-2,3.660732E-4,-7.1463683E-3,8.464428E-3,-2.8366232E-3,-8.371784E-3,-1.1964018E-3,-9.873083E-3,-7.066545E-3,-2.0956288E-3,-1.5198608E-3,-1.0868203E-3,-1.8244821E-3,-7.5368304E-4,-5.693655E-4,-1.4177454E-3,-1.6126388E-3,-2.9790949E-3,2.118501E-3,-9.978E-3,-3.4041246E-3,7.874874E-4,5.561581E-3,-5.5886693E-3,2.0531968E-3,-9.062841E-3,-4.2281806E-4,-4.81782E-3,1.1301244E-3,-6.338385E-3,-1.0597031E-2,8.243294E-3,1.1020568E-2,6.2469784E-3,7.736754E-4,-5.5365656E-3,1.0228397E-2,4.5827743E-2,4.0004877E-3,8.615476E-3,-8.9764217E-4,-2.1578796E-2,1.7787125E-2,-2.4758033E-3,2.7078832E-3,-2.68386E-3,-1.0574176E-3,4.880326E-3,1.8569712E-4,-9.238365E-4,-7.739454E-4,-1.8524072E-3,-3.1615833E-3,-3.2649166E-3,-2.6429286E-3,-1.729682E-3,-2.495957E-3],"categories":[],"categories_nodes":[],"categories_segments":[],"categories_sizes":[],"default_left":[0,0,0,0,0,0,0,0,0,0,0,0,0,0,0,0,0,0,0,0,0,0,0,0,0,0,0,0,0,0,0,0,0,0,0,0,0,0,0,0,0,0,0,0,0,0,0,0,0,0,0,0,0,0,0,0,0,0,0,0,0,0,0,0,0,0,0,0,0,0,0,0,0,0,0,0,0,0,0,0,0,0,0,0,0,0,0,0,0,0,0,0,0,0,0,0,0,0,0,0,0,0,0,0,0],"id":13,"left_children":[1,3,5,7,9,11,13,15,17,19,-1,21,23,25,27,29,31,33,35,37,39,41,43,45,47,49,51,53,55,57,59,61,63,65,67,69,71,-1,-1,-1,73,75,77,79,81,83,85,87,89,91,93,95,97,99,-1,101,103,-1,-1,-1,-1,-1,-1,-1,-1,-1,-1,-1,-1,-1,-1,-1,-1,-1,-1,-1,-1,-1,-1,-1,-1,-1,-1,-1,-1,-1,-1,-1,-1,-1,-1,-1,-1,-1,-1,-1,-1,-1,-1,-1,-1,-1,-1,-1,-1],"loss_changes":[4.3931058E-1,1.1090271E0,5.679444E-1,3.2393876E-1,3.8940215E-1,2.7791274E-1,3.0126214E-2,1.1062384E-2,2.2144258E-1,1.4855576E-1,0E0,6.1809623E-1,2.393688E-1,2.7701344E-2,7.941872E-4,5.690962E-3,2.4352903E-3,3.0465278E-1,2.9518414E-1,2.8529406E-2,8.053151E-2,1.3289577E-1,8.5083514E-2,1.8475312E0,1.0479956E0,2.7566887E-2,2.5725912E-2,2.5657471E-3,1.5249588E-3,2.9504448E-3,2.882585E-3,8.7549444E-5,1.6729347E-5,7.817901E-2,6.479025E-2,2.2899184E-1,8.841188E-1,0E0,0E0,0E0,1.1080021E-1,8.0152415E-2,1.9806802E-2,7.751167E-3,3.3980493E-2,1.1211025E0,1.9807506E0,5.390855E-1,2.3198838E0,6.09062E-2,7.927366E-3,2.453935E-2,1.7311657E-5,1.8773023E-3,0E0,3.422834E-4,6.091166E-4,0E0,0E0,0E0,0E0,0E0,0E0,0E0,0E0,0E0,0E0,0E0,0E0,0E0,0E0,0E0,0E0,0E0,0E0,0E0,0E0,0E0,0E0,0E0,0E0,0E0,0E0,0E0,0E0,0E0,0E0,0E0,0E0,0E0,0E0,0E0,0E0,0E0,0E0,0E0,0E0,0E0,0E0,0E0,0E0,0E0,0E0,0E0,0E0],"parents":[2147483647,0,0,1,1,2,2,3,3,4,4,5,5,6,6,7,7,8,8,9,9,11,11,12,12,13,13,14,14,15,15,16,16,17,17,18,18,19,19,20,20,21,21,22,22,23,23,24,24,25,25,26,26,27,27,28,28,29,29,30,30,31,31,32,32,33,33,34,34,35,35,36,36,40,40,41,41,42,42,43,43,44,44,45,45,46,46,47,47,48,48,49,49,50,50,51,51,52,52,53,53,55,55,56,56],"right_children":[2,4,6,8,10,12,14,16,18,20,-1,22,24,26,28,30,32,34,36,38,40,42,44,46,48,50,52,54,56,58,60,62,64,66,68,70,72,-1,-1,-1,74,76,78,80,82,84,86,88,90,92,94,96,98,100,-1,102,104,-1,-1,-1,-1,-1,-1,-1,-1,-1,-1,-1,-1,-1,-1,-1,-1,-1,-1,-1,-1,-1,-1,-1,-1,-1,-1,-1,-1,-1,-1,-1,-1,-1,-1,-1,-1,-1,-1,-1,-1,-1,-1,-1,-1,-1,-1,-1,-1],"split_conditions":[1.6E1,1.5E1,2.1E1,6E0,6E0,2E0,2.3E1,5E0,1E0,2E0,-2.1097321E-2,1.9E1,4E0,5E0,3E0,5E0,5E0,1.2E1,3E0,1E0,3E0,1.8E1,1E0,2E1,2E1,2E0,6E0,2E0,5E0,4E0,3E0,2E0,6E0,8E0,1.4E1,1E1,4E0,-8.935992E-3,-1.4074862E-2,6.744856E-4,5E0,1.7E1,1E0,2E1,2E1,3E0,3E0,6E0,6E0,1E0,4E0,2.2E1,2.2E1,1E0,-1.1964018E-3,4E0,6E0,-2.0956288E-3,-1.5198608E-3,-1.0868203E-3,-1.8244821E-3,-7.5368304E-4,-5.693655E-4,-1.4177454E-3,-1.6126388E-3,-2.9790949E-3,2.118501E-3,-9.978E-3,-3.4041246E-3,7.874874E-4,5.561581E-3,-5.5886693E-3,2.0531968E-3,-9.062841E-3,-4.2281806E-4,-4.81782E-3,1.1301244E-3,-6.338385E-3,-1.0597031E-2,8.243294E-3,1.1020568E-2,6.2469784E-3,7.736754E-4,-5.5365656E-3,1.0228397E-2,4.5827743E-2,4.0004877E-3,8.615476E-3,-8.9764217E-4,-2.1578796E-2,1.7787125E-2,-2.4758033E-3,2.7078832E-3,-2.68386E-3,-1.0574176E-3,4.880326E-3,1.8569712E-4,-9.238365E-4,-7.739454E-4,-1.8524072E-3,-3.1615833E-3,-3.2649166E-3,-2.6429286E-3,-1.729682E-3,-2.495957E-3],"split_indices":[0,0,0,0,1,1,0,0,1,1,0,0,1,1,1,1,1,0,1,1,1,0,1,0,0,1,1,1,1,0,0,1,1,0,0,0,1,0,0,0,1,0,1,0,0,1,1,1,1,1,1,0,0,1,0,1,1,0,0,0,0,0,0,0,0,0,0,0,0,0,0,0,0,0,0,0,0,0,0,0,0,0,0,0,0,0,0,0,0,0,0,0,0,0,0,0,0,0,0,0,0,0,0,0,0],"split_type":[0,0,0,0,0,0,0,0,0,0,0,0,0,0,0,0,0,0,0,0,0,0,0,0,0,0,0,0,0,0,0,0,0,0,0,0,0,0,0,0,0,0,0,0,0,0,0,0,0,0,0,0,0,0,0,0,0,0,0,0,0,0,0,0,0,0,0,0,0,0,0,0,0,0,0,0,0,0,0,0,0,0,0,0,0,0,0,0,0,0,0,0,0,0,0,0,0,0,0,0,0,0,0,0,0],"sum_hessian":[3.3991E4,2.2646E4,1.1345E4,2.123E4,1.416E3,7.088E3,4.257E3,8.494E3,1.2736E4,1.215E3,2.01E2,2.037E3,5.051E3,2.838E3,1.419E3,7.08E3,1.414E3,1.827E3,1.0909E4,4.07E2,8.08E2,1.221E3,8.16E2,2.029E3,3.022E3,2.034E3,8.04E2,6.1E2,8.09E2,5.079E3,2.001E3,1.015E3,3.99E2,1.217E3,6.1E2,3.662E3,7.247E3,2.04E2,2.03E2,2.03E2,6.05E2,8.14E2,4.07E2,4.08E2,4.08E2,1.622E3,4.07E2,2.417E3,6.05E2,8.14E2,1.22E3,4E2,4.04E2,4.07E2,2.03E2,4.07E2,4.02E2,4.064E3,1.015E3,1.203E3,7.98E2,4.06E2,6.09E2,1.99E2,2E2,4.05E2,8.12E2,4.06E2,2.04E2,1.628E3,2.034E3,1.818E3,5.429E3,4.06E2,1.99E2,4.07E2,4.07E2,2.04E2,2.03E2,2.04E2,2.04E2,2.04E2,2.04E2,8.12E2,8.1E2,2.03E2,2.04E2,1.615E3,8.02E2,4.04E2,2.01E2,4.08E2,4.06E2,8.14E2,4.06E2,2E2,2E2,2.02E2,2.02E2,2.04E2,2.03E2,2.04E2,2.03E2,2E2,2.02E2],"tree_param":{"num_deleted":"0","num_feature":"3","num_nodes":"105","size_leaf_vector":"1"}},{"base_weights":[-7.5943653E-6,-1.7912698E-3,3.5526827E-3,-5.2343897E-4,-2.0785993E-2,7.3954356E-3,-2.8458207E-3,-3.8716556E-3,1.7097103E-3,-1.6026959E-2,-1.4799462E-2,3.488916E-3,1.7313093E-2,-1.5242945E-3,-5.4859384E-3,-4.438939E-3,-2.7339156E-3,1.0460963E-2,6.159427E-4,-2.6953502E-2,-1.0496604E-2,8.268123E-3,-1.5551754E-2,2.2860756E-2,-4.8378194E-3,-2.9005567E-3,1.9567218E-3,-4.855452E-3,-5.954755E-3,-3.4371903E-3,-5.4398277E-3,-5.7368185E-3,-2.2312724E-3,2.9968953E-2,-3.9115485E-2,-4.276548E-3,7.200964E-3,-6.268273E-3,-9.8731015E-3,4.7313157E-4,-1.45437E-2,-3.6777135E-3,2.6112229E-2,1.4209776E-4,-3.9035324E-2,4.7882132E-2,-2.0956108E-3,-1.5442144E-2,1.2477376E-2,2.5655702E-4,-5.0055096E-3,5.937729E-3,-1.9897982E-3,-5.8725346E-3,-8.392458E-4,-6.9256416E-3,-4.9570464E-3,-1.9112008E-3,-6.769769E-4,-1.7776183E-5,-2.2804837E-3,-2.8484077E-3,-5.852055E-4,-2.660901E-4,-1.0761283E-3,3.4473136E-3,1.2674558E-2,-6.932738E-3,-1.6454283E-2,5.300491E-4,-6.7548486E-3,6.648857E-4,6.6348175E-3,-6.3506737E-3,-2.9660246E-4,-4.2266375E-3,-5.3615222E-5,5.0198548E-3,1.6228437E-2,1.7922302E-3,-8.344142E-4,-8.631423E-3,-1.4732646E-2,2.2480527E-2,-9.933353E-3,-7.003509E-3,1.8372672E-2,-1.7348701E-3,1.8975186E-3,-2.1566628E-3,-8.441854E-4,3.4235197E-3,1.3025555E-4,-6.480402E-4,-5.428982E-4,-1.2994008E-3,-2.2177505E-3,-2.2902233E-3,-1.8539353E-3,-1.2133424E-3,-1.7508627E-3],"categories":[],"categories_nodes":[],"categories_segments":[],"categories_sizes":[],"default_left":[0,0,0,0,0,0,0,0,0,0,0,0,0,0,0,0,0,0,0,0,0,0,0,0,0,0,0,0,0,0,0,0,0,0,0,0,0,0,0,0,0,0,0,0,0,0,0,0,0,0,0,0,0,0,0,0,0,0,0,0,0,0,0,0,0,0,0,0,0,0,0,0,0,0,0,0,0,0,0,0,0,0,0,0,0,0,0,0,0,0,0,0,0,0,0,0,0,0,0,0,0],"id":14,"left_children":[1,3,5,7,9,11,13,15,17,19,-1,21,23,25,27,29,31,33,35,37,39,41,43,45,47,49,51,53,55,57,59,61,63,65,67,69,71,-1,-1,-1,73,75,77,79,81,83,85,-1,-1,87,89,91,93,95,-1,97,99,-1,-1,-1,-1,-1,-1,-1,-1,-1,-1,-1,-1,-1,-1,-1,-1,-1,-1,-1,-1,-1,-1,-1,-1,-1,-1,-1,-1,-1,-1,-1,-1,-1,-1,-1,-1,-1,-1,-1,-1,-1,-1,-1,-1],"loss_changes":[2.1586841E-1,5.453763E-1,2.7899495E-1,1.5875225E-1,1.9170779E-1,2.7459246E-1,1.4847733E-2,5.470708E-3,1.21910036E-1,7.31971E-2,0E0,4.6304205E-1,2.4625075E-1,1.3606733E-2,3.9081275E-4,5.6632534E-3,4.25726E-3,1.3696709E0,3.6482564E-1,1.4038712E-2,3.955347E-2,8.670291E-1,3.7629274E-1,1.0004574E0,8.7257767E-1,1.352503E-2,1.265927E-2,1.2624692E-3,7.502865E-4,9.803988E-3,3.295199E-2,5.743742E-3,4.416717E-3,2.3004574E-1,9.945816E-2,7.1619684E-1,3.588237E-1,0E0,0E0,0E0,5.440083E-2,8.8773295E-2,4.271655E-1,1.0468104E-2,4.0874958E-2,1.7553681E0,1.0821813E0,0E0,0E0,2.9906716E-2,5.8222227E-3,1.2075737E-2,8.517876E-6,9.2375E-4,0E0,1.6840547E-4,2.9972196E-4,0E0,0E0,0E0,0E0,0E0,0E0,0E0,0E0,0E0,0E0,0E0,0E0,0E0,0E0,0E0,0E0,0E0,0E0,0E0,0E0,0E0,0E0,0E0,0E0,0E0,0E0,0E0,0E0,0E0,0E0,0E0,0E0,0E0,0E0,0E0,0E0,0E0,0E0,0E0,0E0,0E0,0E0,0E0,0E0],"parents":[2147483647,0,0,1,1,2,2,3,3,4,4,5,5,6,6,7,7,8,8,9,9,11,11,12,12,13,13,14,14,15,15,16,16,17,17,18,18,19,19,20,20,21,21,22,22,23,23,24,24,25,25,26,26,27,27,28,28,29,29,30,30,31,31,32,32,33,33,34,34,35,35,36,36,40,40,41,41,42,42,43,43,44,44,45,45,46,46,49,49,50,50,51,51,52,52,53,53,55,55,56,56],"right_children":[2,4,6,8,10,12,14,16,18,20,-1,22,24,26,28,30,32,34,36,38,40,42,44,46,48,50,52,54,56,58,60,62,64,66,68,70,72,-1,-1,-1,74,76,78,80,82,84,86,-1,-1,88,90,92,94,96,-1,98,100,-1,-1,-1,-1,-1,-1,-1,-1,-1,-1,-1,-1,-1,-1,-1,-1,-1,-1,-1,-1,-1,-1,-1,-1,-1,-1,-1,-1,-1,-1,-1,-1,-1,-1,-1,-1,-1,-1,-1,-1,-1,-1,-1,-1],"split_conditions":[1.6E1,1.5E1,2.1E1,6E0,6E0,5E0,2.3E1,4E0,7E0,2E0,-1.4799462E-2,4E0,2E1,5E0,3E0,2E0,1E0,5E0,4E0,1E0,3E0,1.9E1,1.9E1,6E0,6E0,2E0,6E0,2E0,5E0,2E0,2E0,5E0,4E0,2E0,6E0,3E0,1.3E1,-6.268273E-3,-9.8731015E-3,4.7313157E-4,5E0,1E0,3E0,1.7E1,2E1,1.9E1,1.9E1,-1.5442144E-2,1.2477376E-2,1E0,2.2E1,2.2E1,2.2E1,1E0,-8.392458E-4,4E0,6E0,-1.9112008E-3,-6.769769E-4,-1.7776183E-5,-2.2804837E-3,-2.8484077E-3,-5.852055E-4,-2.660901E-4,-1.0761283E-3,3.4473136E-3,1.2674558E-2,-6.932738E-3,-1.6454283E-2,5.300491E-4,-6.7548486E-3,6.648857E-4,6.6348175E-3,-6.3506737E-3,-2.9660246E-4,-4.2266375E-3,-5.3615222E-5,5.0198548E-3,1.6228437E-2,1.7922302E-3,-8.344142E-4,-8.631423E-3,-1.4732646E-2,2.2480527E-2,-9.933353E-3,-7.003509E-3,1.8372672E-2,-1.7348701E-3,1.8975186E-3,-2.1566628E-3,-8.441854E-4,3.4235197E-3,1.3025555E-4,-6.480402E-4,-5.428982E-4,-1.2994008E-3,-2.2177505E-3,-2.2902233E-3,-1.8539353E-3,-1.2133424E-3,-1.7508627E-3],"split_indices":[0,0,0,0,1,1,0,0,0,1,0,1,0,1,1,0,1,1,1,1,1,0,0,1,1,1,1,1,1,1,1,0,1,1,1,1,0,0,0,0,1,1,1,0,0,0,0,0,0,1,0,0,0,1,0,1,1,0,0,0,0,0,0,0,0,0,0,0,0,0,0,0,0,0,0,0,0,0,0,0,0,0,0,0,0,0,0,0,0,0,0,0,0,0,0,0,0,0,0,0,0],"split_type":[0,0,0,0,0,0,0,0,0,0,0,0,0,0,0,0,0,0,0,0,0,0,0,0,0,0,0,0,0,0,0,0,0,0,0,0,0,0,0,0,0,0,0,0,0,0,0,0,0,0,0,0,0,0,0,0,0,0,0,0,0,0,0,0,0,0,0,0,0,0,0,0,0,0,0,0,0,0,0,0,0,0,0,0,0,0,0,0,0,0,0,0,0,0,0,0,0,0,0,0,0],"sum_hessian":[3.3991E4,2.2646E4,1.1345E4,2.123E4,1.416E3,7.088E3,4.257E3,8.494E3,1.2736E4,1.215E3,2.01E2,5.086E3,2.002E3,2.838E3,1.419E3,5.666E3,2.828E3,1.414E3,1.1322E4,4.07E2,8.08E2,4.066E3,1.02E3,1.601E3,4.01E2,2.034E3,8.04E2,6.1E2,8.09E2,2.834E3,2.832E3,4.04E2,2.424E3,1.015E3,3.99E2,6.496E3,4.826E3,2.04E2,2.03E2,2.03E2,6.05E2,2.436E3,1.63E3,6.12E2,4.08E2,7.99E2,8.02E2,2E2,2.01E2,8.14E2,1.22E3,4E2,4.04E2,4.07E2,2.03E2,4.07E2,4.02E2,8.12E2,2.022E3,8.12E2,2.02E3,2.02E2,2.02E2,1.218E3,1.206E3,4.06E2,6.09E2,1.99E2,2E2,4.88E3,1.616E3,3.618E3,1.208E3,4.06E2,1.99E2,6.12E2,1.824E3,1.222E3,4.08E2,2.04E2,4.08E2,2.04E2,2.04E2,5.99E2,2E2,6.01E2,2.01E2,4.08E2,4.06E2,6.1E2,6.1E2,2E2,2E2,2.02E2,2.02E2,2.04E2,2.03E2,2.04E2,2.03E2,2E2,2.02E2],"tree_param":{"num_deleted":"0","num_feature":"3","num_nodes":"101","size_leaf_vector":"1"}},{"base_weights":[-6.7594856E-6,-1.1152241E-3,3.3099132E-3,-6.376592E-3,-2.3486343E-4,8.613945E-3,-1.9948962E-3,-2.0445161E-3,-1.4978856E-2,4.334241E-3,-2.5416072E-3,-2.4014448E-3,1.6933234E-2,-1.0672002E-3,-3.8482302E-3,-3.7057018E-3,4.8300354E-3,-2.3835277E-2,-1.0548571E-2,-1.5349418E-3,1.1677958E-2,1.3461154E-3,-7.4037313E-3,-2.3607118E-2,3.9944526E-2,3.147759E-2,-1.2122515E-2,-2.0318097E-3,1.3726102E-3,-3.4059505E-3,-4.1771E-3,-1.1516571E-3,-8.708301E-3,-3.4719515E-3,-1.0794164E-2,-9.196713E-3,-4.3618507E-3,8.1310584E-4,-1.09166065E-2,2.0108674E-2,6.6021644E-3,6.5170364E-3,-1.4317201E-2,-3.9529756E-2,3.355263E-3,-2.8459642E-3,-6.517344E-2,8.814817E-3,3.064822E-2,7.619441E-2,1.6422905E-2,-2.580084E-2,8.752687E-3,1.7976918E-4,-3.5063429E-3,4.165231E-3,-1.3958182E-3,-4.119395E-3,-5.887099E-4,-4.8580896E-3,-3.4772968E-3,-1.5869132E-3,4.5905146E-3,-3.4800253E-3,-1.3070499E-3,-6.5322634E-4,2.9329052E-3,-8.562798E-3,2.0468647E-3,1.1415663E-2,6.131776E-4,-2.9160774E-3,6.8802466E-3,-9.0046687E-4,6.2488755E-3,-4.633087E-4,-1.0035185E-2,-1.6617518E-2,-7.0856777E-3,3.4414805E-3,-1.4267236E-3,-5.3087226E-3,3.592339E-3,-1.6929315E-2,-2.2078909E-2,6.231909E-3,-9.559177E-4,2.085889E-2,2.472675E-2,-2.0957694E-3,8.497648E-3,-2.0386025E-3,-1.0607162E-2,-1.2156871E-3,1.3296551E-3,-1.4301181E-3,-2.9195863E-4,2.4015596E-3,9.136254E-5,-4.5459138E-4,-3.8083678E-4,-9.114879E-4,-1.555681E-3,-1.6065001E-3,-1.3004787E-3,-8.511628E-4,-1.2281846E-3],"categories":[],"categories_nodes":[],"categories_segments":[],"categories_sizes":[],"default_left":[0,0,0,0,0,0,0,0,0,0,0,0,0,0,0,0,0,0,0,0,0,0,0,0,0,0,0,0,0,0,0,0,0,0,0,0,0,0,0,0,0,0,0,0,0,0,0,0,0,0,0,0,0,0,0,0,0,0,0,0,0,0,0,0,0,0,0,0,0,0,0,0,0,0,0,0,0,0,0,0,0,0,0,0,0,0,0,0,0,0,0,0,0,0,0,0,0,0,0,0,0,0,0,0,0,0,0],"id":15,"left_children":[1,3,5,7,9,11,13,15,17,19,21,23,25,27,29,31,-1,33,35,37,39,41,43,45,47,49,51,53,55,57,59,61,-1,-1,-1,63,-1,65,67,69,71,73,75,77,79,81,83,85,-1,87,89,91,-1,93,95,97,99,101,-1,103,105,-1,-1,-1,-1,-1,-1,-1,-1,-1,-1,-1,-1,-1,-1,-1,-1,-1,-1,-1,-1,-1,-1,-1,-1,-1,-1,-1,-1,-1,-1,-1,-1,-1,-1,-1,-1,-1,-1,-1,-1,-1,-1,-1,-1,-1,-1],"loss_changes":[1.24972366E-1,1.1801009E-1,2.3960271E-1,1.3606358E-1,2.3006223E-1,3.9024472E-1,7.3168036E-3,7.3303774E-2,4.7734767E-2,3.1565106E-1,2.7419204E-1,1.6469307E0,1.0256023E0,6.6842735E-3,1.9231439E-4,1.4399432E-1,0E0,6.0196698E-2,4.274145E-3,8.968729E-2,1.3907146E-1,6.529841E-1,2.2278066E0,1.0543575E0,1.1844041E0,1.0873094E0,4.5831314E-1,6.636861E-3,6.229406E-3,6.2119635E-4,3.691204E-4,1.3788484E-1,0E0,0E0,0E0,7.0798956E-3,0E0,8.732459E-2,2.550266E-1,3.9602798E-1,5.419087E-1,8.257848E-1,4.889687E-1,4.0678525E-1,3.1795576E-1,1.7979722E-1,2.5817037E-2,5.8763005E-2,0E0,1.1163235E-2,3.3761314E-1,1.1036843E-1,0E0,1.4685082E-2,3.894724E-3,5.9423544E-3,4.191301E-6,4.5453757E-4,0E0,8.285139E-5,1.4745304E-4,0E0,0E0,0E0,0E0,0E0,0E0,0E0,0E0,0E0,0E0,0E0,0E0,0E0,0E0,0E0,0E0,0E0,0E0,0E0,0E0,0E0,0E0,0E0,0E0,0E0,0E0,0E0,0E0,0E0,0E0,0E0,0E0,0E0,0E0,0E0,0E0,0E0,0E0,0E0,0E0,0E0,0E0,0E0,0E0,0E0,0E0],"parents":[2147483647,0,0,1,1,2,2,3,3,4,4,5,5,6,6,7,7,8,8,9,9,10,10,11,11,12,12,13,13,14,14,15,15,17,17,18,18,19,19,20,20,21,21,22,22,23,23,24,24,25,25,26,26,27,27,28,28,29,29,30,30,31,31,35,35,37,37,38,38,39,39,40,40,41,41,42,42,43,43,44,44,45,45,46,46,47,47,49,49,50,50,51,51,53,53,54,54,55,55,56,56,57,57,59,59,60,60],"right_children":[2,4,6,8,10,12,14,16,18,20,22,24,26,28,30,32,-1,34,36,38,40,42,44,46,48,50,52,54,56,58,60,62,-1,-1,-1,64,-1,66,68,70,72,74,76,78,80,82,84,86,-1,88,90,92,-1,94,96,98,100,102,-1,104,106,-1,-1,-1,-1,-1,-1,-1,-1,-1,-1,-1,-1,-1,-1,-1,-1,-1,-1,-1,-1,-1,-1,-1,-1,-1,-1,-1,-1,-1,-1,-1,-1,-1,-1,-1,-1,-1,-1,-1,-1,-1,-1,-1,-1,-1,-1],"split_conditions":[1.8E1,1E0,2.1E1,1.2E1,3E0,3E0,2.3E1,1.1E1,1.4E1,1E1,1E1,2E1,2E1,5E0,3E0,1E1,4.8300354E-3,1.3E1,1.7E1,8E0,1.3E1,6E0,4E0,2E0,2E0,4E0,6E0,2E0,6E0,2E0,5E0,8E0,-8.708301E-3,-3.4719515E-3,-1.0794164E-2,1.6E1,-4.3618507E-3,6E0,2E0,2E0,2E0,6E0,6E0,1.4E1,1.4E1,1.9E1,1.9E1,1E0,3.064822E-2,1.9E1,5E0,4E0,8.752687E-3,1E0,4E0,2.2E1,2.2E1,1E0,-5.887099E-4,4E0,6E0,-1.5869132E-3,4.5905146E-3,-3.4800253E-3,-1.3070499E-3,-6.5322634E-4,2.9329052E-3,-8.562798E-3,2.0468647E-3,1.1415663E-2,6.131776E-4,-2.9160774E-3,6.8802466E-3,-9.0046687E-4,6.2488755E-3,-4.633087E-4,-1.0035185E-2,-1.6617518E-2,-7.0856777E-3,3.4414805E-3,-1.4267236E-3,-5.3087226E-3,3.592339E-3,-1.6929315E-2,-2.2078909E-2,6.231909E-3,-9.559177E-4,2.085889E-2,2.472675E-2,-2.0957694E-3,8.497648E-3,-2.0386025E-3,-1.0607162E-2,-1.2156871E-3,1.3296551E-3,-1.4301181E-3,-2.9195863E-4,2.4015596E-3,9.136254E-5,-4.5459138E-4,-3.8083678E-4,-9.114879E-4,-1.555681E-3,-1.6065001E-3,-1.3004787E-3,-8.511628E-4,-1.2281846E-3],"split_indices":[0,1,0,0,1,1,0,0,0,0,0,0,0,1,1,0,0,0,0,0,0,1,1,1,1,1,1,1,1,1,1,0,0,0,0,0,0,0,1,1,1,0,0,0,0,0,0,1,0,0,1,1,0,1,1,0,0,1,0,1,1,0,0,0,0,0,0,0,0,0,0,0,0,0,0,0,0,0,0,0,0,0,0,0,0,0,0,0,0,0,0,0,0,0,0,0,0,0,0,0,0,0,0,0,0,0,0],"split_type":[0,0,0,0,0,0,0,0,0,0,0,0,0,0,0,0,0,0,0,0,0,0,0,0,0,0,0,0,0,0,0,0,0,0,0,0,0,0,0,0,0,0,0,0,0,0,0,0,0,0,0,0,0,0,0,0,0,0,0,0,0,0,0,0,0,0,0,0,0,0,0,0,0,0,0,0,0,0,0,0,0,0,0,0,0,0,0,0,0,0,0,0,0,0,0,0,0,0,0,0,0,0,0,0,0,0,0],"sum_hessian":[3.3991E4,2.5477E4,8.514E3,3.651E3,2.1826E4,4.257E3,4.257E3,2.429E3,1.222E3,7.322E3,1.4504E4,1.832E3,2.425E3,2.838E3,1.419E3,2.226E3,2.03E2,4.06E2,8.16E2,4.07E3,3.252E3,8.06E3,6.444E3,1.221E3,6.11E2,1.616E3,8.09E2,2.034E3,8.04E2,6.1E2,8.09E2,2.023E3,2.03E2,2.03E2,2.03E2,6.12E2,2.04E2,3.256E3,8.14E2,1.221E3,2.031E3,6.06E3,2E3,1.616E3,4.828E3,8.15E2,4.06E2,4.08E2,2.03E2,4.06E2,1.21E3,6.08E2,2.01E2,8.14E2,1.22E3,4E2,4.04E2,4.07E2,2.03E2,4.07E2,4.02E2,1.617E3,4.06E2,4.08E2,2.04E2,2.442E3,8.14E2,4.08E2,4.06E2,6.12E2,6.09E2,1.016E3,1.015E3,3.64E3,2.42E3,1.2E3,8E2,8.08E2,8.08E2,2.413E3,2.415E3,4.07E2,4.08E2,2.03E2,2.03E2,2.04E2,2.04E2,2.02E2,2.04E2,4.08E2,8.02E2,2.04E2,4.04E2,4.08E2,4.06E2,8.14E2,4.06E2,2E2,2E2,2.02E2,2.02E2,2.04E2,2.03E2,2.04E2,2.03E2,2E2,2.02E2],"tree_param":{"num_deleted":"0","num_feature":"3","num_nodes":"107","size_leaf_vector":"1"}},{"base_weights":[-4.847543E-6,-1.0639918E-3,2.1092407E-3,-2.656364E-4,-1.3025051E-2,4.2157476E-3,-1.3983063E-3,-1.1117265E-3,4.8704417E-3,-9.665285E-3,-9.955709E-3,2.143269E-3,9.477097E-3,-7.470265E-4,-2.6994227E-3,1.7811673E-3,-6.8982835E-3,-8.013098E-3,4.017779E-2,-1.1699298E-2,2.177995E-4,4.5338054E-3,-7.381173E-3,1.8860394E-2,1.2174344E-4,-1.4230551E-3,9.6286804E-4,-2.3891688E-3,-2.930121E-3,-1.9714145E-3,7.4135344E-3,2.1909405E-3,-1.606032E-2,-1.0814396E-3,-1.6321696E-2,5.2341826E-2,1.118295E-3,-1.5716111E-2,-8.993464E-3,6.974161E-4,1.981739E-2,1.7481237E-3,-2.104591E-2,5.0608292E-2,-2.8689727E-2,-1.8242424E-2,2.7553773E-2,1.2597993E-4,-2.4558483E-3,2.9218763E-3,-9.791695E-4,-2.8896302E-3,-4.1296033E-4,-3.4077887E-3,-2.439256E-3,-7.520787E-4,-2.692769E-4,-7.998853E-4,3.7461019E-3,-2.8568627E-3,2.413168E-3,-7.6447977E-3,-5.7523255E-4,-6.573441E-6,-4.831545E-4,-7.028396E-3,3.62358E-3,2.2687748E-2,1.2170888E-2,-3.358054E-3,-6.0551525E-3,-1.4844985E-3,-5.088281E-3,-9.1210596E-4,3.585403E-3,8.405962E-3,-1.4300076E-3,-4.665295E-4,2.4989783E-3,-5.428936E-3,-7.167812E-3,1.0265819E-2,2.489137E-2,-9.50477E-3,-7.6662465E-3,-1.24225095E-2,-1.9842228E-3,1.0351432E-2,6.1399103E-3,-8.518698E-4,9.317368E-4,-1.1958415E-3,-2.7646168E-4,1.6846629E-3,6.410204E-5,-3.1889978E-4,-2.671549E-4,-6.393795E-4,-1.0912644E-3,-1.126894E-3,-9.122553E-4,-5.9708685E-4,-8.615349E-4],"categories":[],"categories_nodes":[],"categories_segments":[],"categories_sizes":[],"default_left":[0,0,0,0,0,0,0,0,0,0,0,0,0,0,0,0,0,0,0,0,0,0,0,0,0,0,0,0,0,0,0,0,0,0,0,0,0,0,0,0,0,0,0,0,0,0,0,0,0,0,0,0,0,0,0,0,0,0,0,0,0,0,0,0,0,0,0,0,0,0,0,0,0,0,0,0,0,0,0,0,0,0,0,0,0,0,0,0,0,0,0,0,0,0,0,0,0,0,0,0,0,0,0],"id":16,"left_children":[1,3,5,7,9,11,13,15,17,19,-1,21,23,25,27,29,31,33,35,37,-1,39,41,43,45,47,49,51,53,55,57,59,61,63,65,67,-1,69,71,73,75,77,79,81,83,85,87,89,91,93,95,97,-1,99,101,-1,-1,-1,-1,-1,-1,-1,-1,-1,-1,-1,-1,-1,-1,-1,-1,-1,-1,-1,-1,-1,-1,-1,-1,-1,-1,-1,-1,-1,-1,-1,-1,-1,-1,-1,-1,-1,-1,-1,-1,-1,-1,-1,-1,-1,-1,-1,-1],"loss_changes":[7.611457E-2,2.1625674E-1,8.383776E-2,9.226654E-2,9.565978E-2,7.727839E-2,3.6061723E-3,3.0516386E-1,1.3663373E0,2.5709867E-2,0E0,1.1585697E-1,1.7582919E-1,3.283077E-3,9.4637275E-5,2.5690058E-1,5.06019E-1,1.2674315E-1,3.5583985E-1,1.0912254E-2,0E0,2.3844971E-1,1.2740597E-1,1.5110683E0,5.062841E-1,3.2559684E-3,3.0654573E-3,3.0566752E-4,1.8160883E-4,4.1927304E-3,2.4857202E-1,2.0925444E-1,4.0319294E-1,6.732093E-4,2.0230553E-1,1.6194236E-1,0E0,8.018017E-3,1.9576065E-2,1.3683034E-1,1.6468036E-1,1.3340284E-2,3.0018091E-3,3.1539643E-1,2.9534698E-3,1.6189387E-1,1.9147396E-2,7.2107795E-3,2.8631585E-3,2.9240926E-3,2.0632579E-6,2.2366247E-4,0E0,4.0755607E-5,7.254281E-5,0E0,0E0,0E0,0E0,0E0,0E0,0E0,0E0,0E0,0E0,0E0,0E0,0E0,0E0,0E0,0E0,0E0,0E0,0E0,0E0,0E0,0E0,0E0,0E0,0E0,0E0,0E0,0E0,0E0,0E0,0E0,0E0,0E0,0E0,0E0,0E0,0E0,0E0,0E0,0E0,0E0,0E0,0E0,0E0,0E0,0E0,0E0,0E0],"parents":[2147483647,0,0,1,1,2,2,3,3,4,4,5,5,6,6,7,7,8,8,9,9,11,11,12,12,13,13,14,14,15,15,16,16,17,17,18,18,19,19,21,21,22,22,23,23,24,24,25,25,26,26,27,27,28,28,29,29,30,30,31,31,32,32,33,33,34,34,35,35,37,37,38,38,39,39,40,40,41,41,42,42,43,43,44,44,45,45,46,46,47,47,48,48,49,49,50,50,51,51,53,53,54,54],"right_children":[2,4,6,8,10,12,14,16,18,20,-1,22,24,26,28,30,32,34,36,38,-1,40,42,44,46,48,50,52,54,56,58,60,62,64,66,68,-1,70,72,74,76,78,80,82,84,86,88,90,92,94,96,98,-1,100,102,-1,-1,-1,-1,-1,-1,-1,-1,-1,-1,-1,-1,-1,-1,-1,-1,-1,-1,-1,-1,-1,-1,-1,-1,-1,-1,-1,-1,-1,-1,-1,-1,-1,-1,-1,-1,-1,-1,-1,-1,-1,-1,-1,-1,-1,-1,-1,-1],"split_conditions":[1.6E1,1.5E1,2.1E1,6E0,6E0,5E0,2.3E1,1E1,1.1E1,5E0,-9.955709E-3,4E0,6E0,5E0,3E0,6E0,3E0,6E0,1.4E1,2E0,2.177995E-4,2E1,1.9E1,1.9E1,1.9E1,2E0,6E0,2E0,5E0,4E0,2E0,1E0,1.3E1,2E0,1E1,1.2E1,1.118295E-3,1E0,4E0,3E0,3E0,1.8E1,2E1,1.8E1,2E1,1.7E1,2E1,1E0,2.2E1,2.2E1,2.2E1,1E0,-4.1296033E-4,4E0,6E0,-7.520787E-4,-2.692769E-4,-7.998853E-4,3.7461019E-3,-2.8568627E-3,2.413168E-3,-7.6447977E-3,-5.7523255E-4,-6.573441E-6,-4.831545E-4,-7.028396E-3,3.62358E-3,2.2687748E-2,1.2170888E-2,-3.358054E-3,-6.0551525E-3,-1.4844985E-3,-5.088281E-3,-9.1210596E-4,3.585403E-3,8.405962E-3,-1.4300076E-3,-4.665295E-4,2.4989783E-3,-5.428936E-3,-7.167812E-3,1.0265819E-2,2.489137E-2,-9.50477E-3,-7.6662465E-3,-1.24225095E-2,-1.9842228E-3,1.0351432E-2,6.1399103E-3,-8.518698E-4,9.317368E-4,-1.1958415E-3,-2.7646168E-4,1.6846629E-3,6.410204E-5,-3.1889978E-4,-2.671549E-4,-6.393795E-4,-1.0912644E-3,-1.126894E-3,-9.122553E-4,-5.9708685E-4,-8.615349E-4],"split_indices":[0,0,0,1,1,1,0,0,0,1,0,1,1,1,1,0,1,0,0,1,0,0,0,0,0,1,1,1,1,0,1,1,0,0,0,0,0,1,1,1,1,0,0,0,0,0,0,1,0,0,0,1,0,1,1,0,0,0,0,0,0,0,0,0,0,0,0,0,0,0,0,0,0,0,0,0,0,0,0,0,0,0,0,0,0,0,0,0,0,0,0,0,0,0,0,0,0,0,0,0,0,0,0],"split_type":[0,0,0,0,0,0,0,0,0,0,0,0,0,0,0,0,0,0,0,0,0,0,0,0,0,0,0,0,0,0,0,0,0,0,0,0,0,0,0,0,0,0,0,0,0,0,0,0,0,0,0,0,0,0,0,0,0,0,0,0,0,0,0,0,0,0,0,0,0,0,0,0,0,0,0,0,0,0,0,0,0,0,0,0,0,0,0,0,0,0,0,0,0,0,0,0,0,0,0,0,0,0,0],"sum_hessian":[3.3991E4,2.2646E4,1.1345E4,2.123E4,1.416E3,7.088E3,4.257E3,1.8228E4,3.002E3,1.215E3,2.01E2,5.086E3,2.002E3,2.838E3,1.419E3,1.2153E4,6.075E3,2.2E3,8.02E2,1.016E3,1.99E2,4.066E3,1.02E3,9.99E2,1.003E3,2.034E3,8.04E2,6.1E2,8.09E2,7.294E3,4.859E3,3.05E3,3.025E3,1.2E3,1E3,6.01E2,2.01E2,4.07E2,6.09E2,3.251E3,8.15E2,6.12E2,4.08E2,5.99E2,4E2,6.01E2,4.02E2,8.14E2,1.22E3,4E2,4.04E2,4.07E2,2.03E2,4.07E2,4.02E2,4.866E3,2.428E3,1.627E3,3.232E3,1.016E3,2.034E3,1.815E3,1.21E3,4E2,8E2,8E2,2E2,2E2,4.01E2,2.04E2,2.03E2,4.05E2,2.04E2,2.441E3,8.1E2,6.11E2,2.04E2,4.08E2,2.04E2,2.04E2,2.04E2,3.99E2,2E2,2E2,2E2,2E2,4.01E2,2.01E2,2.01E2,4.08E2,4.06E2,6.1E2,6.1E2,2E2,2E2,2.02E2,2.02E2,2.04E2,2.03E2,2.04E2,2.03E2,2E2,2.02E2],"tree_param":{"num_deleted":"0","num_feature":"3","num_nodes":"103","size_leaf_vector":"1"}},{"base_weights":[-3.0221538E-6,-7.44818E-4,1.4776278E-3,-1.8476027E-4,-9.135673E-3,2.9537159E-3,-9.802085E-4,-7.785853E-4,3.4199758E-3,-6.778657E-3,-6.9837645E-3,1.5001001E-3,6.643975E-3,1.092253E-4,-1.524772E-3,1.2469689E-3,-4.8302324E-3,-5.610952E-3,2.8169231E-2,-8.205217E-3,1.5278829E-4,3.1760219E-3,-5.177151E-3,1.3220259E-2,8.72745E-5,-2.6750895E-3,1.6308206E-3,1.7302746E-3,-2.0717853E-3,-1.3801211E-3,5.1900498E-3,1.5335185E-3,-1.1244963E-2,-7.574211E-4,-1.1428614E-2,3.6697153E-2,7.8446564E-4,-1.102433E-2,-6.3061947E-3,-1.2261949E-3,9.751758E-3,1.227038E-3,-1.4762946E-2,3.548439E-2,-2.0125624E-2,-1.2793642E-2,1.9328525E-2,4.4834726E-3,-1.0520075E-3,1.4841339E-3,-4.4850112E-4,-6.593438E-3,-1.1619659E-3,-4.957822E-4,-4.562721E-6,-1.2503103E-4,3.2516187E-3,2.048104E-3,-1.9217437E-3,-8.012888E-3,-1.0452123E-3,1.4157513E-4,-3.0105436E-4,-4.922517E-3,2.5419067E-3,1.5915273E-2,8.528696E-3,-2.3555493E-3,-4.2475024E-3,-1.0402416E-3,-3.569247E-3,2.2026598E-4,-2.1413148E-3,1.3416944E-3,7.6543842E-3,1.8224091E-3,-3.6171533E-4,-3.808207E-3,-5.027957E-3,1.7522749E-2,7.1886308E-3,-6.667517E-3,-5.3778193E-3,-8.714282E-3,-1.3904502E-3,7.261379E-3,4.3070307E-3,-1.3036713E-3,3.501531E-4,-3.18087E-3,-7.6549663E-4,-1.4544521E-4,-5.513902E-4],"categories":[],"categories_nodes":[],"categories_segments":[],"categories_sizes":[],"default_left":[0,0,0,0,0,0,0,0,0,0,0,0,0,0,0,0,0,0,0,0,0,0,0,0,0,0,0,0,0,0,0,0,0,0,0,0,0,0,0,0,0,0,0,0,0,0,0,0,0,0,0,0,0,0,0,0,0,0,0,0,0,0,0,0,0,0,0,0,0,0,0,0,0,0,0,0,0,0,0,0,0,0,0,0,0,0,0,0,0,0,0,0,0],"id":17,"left_children":[1,3,5,7,9,11,13,15,17,19,-1,21,23,25,27,29,31,33,35,37,-1,39,41,43,45,-1,47,49,51,53,55,57,59,61,63,65,-1,67,69,71,73,75,77,79,81,83,85,-1,87,-1,-1,89,91,-1,-1,-1,-1,-1,-1,-1,-1,-1,-1,-1,-1,-1,-1,-1,-1,-1,-1,-1,-1,-1,-1,-1,-1,-1,-1,-1,-1,-1,-1,-1,-1,-1,-1,-1,-1,-1,-1,-1,-1],"loss_changes":[3.7335873E-2,1.06424786E-1,4.1165985E-2,4.544937E-2,4.7080092E-2,3.8016982E-2,2.526292E-3,1.4960834E-1,6.7135483E-1,1.2646571E-2,0E0,5.694276E-2,8.636565E-2,1.9517116E-2,5.058578E-3,1.2590837E-1,2.4805017E-1,6.2139228E-2,1.748982E-1,5.3750426E-3,0E0,1.1774273E-1,6.269653E-2,7.431312E-1,2.490836E-1,0E0,4.3450523E-2,4.250852E-3,9.993199E-3,2.713128E-3,1.5392616E-1,1.2826753E-1,3.6308753E-1,3.638147E-4,9.934382E-2,7.989156E-2,0E0,3.9454326E-3,9.640748E-3,2.8247716E-2,1.3561626E-1,7.2365375E-3,1.4770105E-3,1.5708792E-1,1.45334E-3,7.969839E-2,9.422287E-3,0E0,7.409114E-3,0E0,0E0,6.5685324E-3,9.2605967E-4,0E0,0E0,0E0,0E0,0E0,0E0,0E0,0E0,0E0,0E0,0E0,0E0,0E0,0E0,0E0,0E0,0E0,0E0,0E0,0E0,0E0,0E0,0E0,0E0,0E0,0E0,0E0,0E0,0E0,0E0,0E0,0E0,0E0,0E0,0E0,0E0,0E0,0E0,0E0,0E0],"parents":[2147483647,0,0,1,1,2,2,3,3,4,4,5,5,6,6,7,7,8,8,9,9,11,11,12,12,13,13,14,14,15,15,16,16,17,17,18,18,19,19,21,21,22,22,23,23,24,24,26,26,27,27,28,28,29,29,30,30,31,31,32,32,33,33,34,34,35,35,37,37,38,38,39,39,40,40,41,41,42,42,43,43,44,44,45,45,46,46,48,48,51,51,52,52],"right_children":[2,4,6,8,10,12,14,16,18,20,-1,22,24,26,28,30,32,34,36,38,-1,40,42,44,46,-1,48,50,52,54,56,58,60,62,64,66,-1,68,70,72,74,76,78,80,82,84,86,-1,88,-1,-1,90,92,-1,-1,-1,-1,-1,-1,-1,-1,-1,-1,-1,-1,-1,-1,-1,-1,-1,-1,-1,-1,-1,-1,-1,-1,-1,-1,-1,-1,-1,-1,-1,-1,-1,-1,-1,-1,-1,-1,-1,-1],"split_conditions":[1.6E1,1.5E1,2.1E1,6E0,6E0,5E0,2.2E1,1E1,1.1E1,5E0,-6.9837645E-3,4E0,6E0,1E0,1E0,6E0,3E0,6E0,1.4E1,2E0,1.5278829E-4,1.9E1,1.9E1,1.9E1,1.9E1,-2.6750895E-3,2E0,2.3E1,2E0,5E0,3E0,1.3E1,4E0,1E0,1E1,1.2E1,7.8446564E-4,1E0,4E0,3E0,3E0,1.7E1,2E1,1.7E1,2E1,1.7E1,2E1,4.4834726E-3,4E0,1.4841339E-3,-4.4850112E-4,2.3E1,2.3E1,-4.957822E-4,-4.562721E-6,-1.2503103E-4,3.2516187E-3,2.048104E-3,-1.9217437E-3,-8.012888E-3,-1.0452123E-3,1.4157513E-4,-3.0105436E-4,-4.922517E-3,2.5419067E-3,1.5915273E-2,8.528696E-3,-2.3555493E-3,-4.2475024E-3,-1.0402416E-3,-3.569247E-3,2.2026598E-4,-2.1413148E-3,1.3416944E-3,7.6543842E-3,1.8224091E-3,-3.6171533E-4,-3.808207E-3,-5.027957E-3,1.7522749E-2,7.1886308E-3,-6.667517E-3,-5.3778193E-3,-8.714282E-3,-1.3904502E-3,7.261379E-3,4.3070307E-3,-1.3036713E-3,3.501531E-4,-3.18087E-3,-7.6549663E-4,-1.4544521E-4,-5.513902E-4],"split_indices":[0,0,0,1,1,1,0,0,0,1,0,1,1,1,1,0,1,0,0,1,0,0,0,0,0,0,1,0,1,0,1,0,1,0,0,0,0,1,1,1,1,0,0,0,0,0,0,0,1,0,0,0,0,0,0,0,0,0,0,0,0,0,0,0,0,0,0,0,0,0,0,0,0,0,0,0,0,0,0,0,0,0,0,0,0,0,0,0,0,0,0,0,0],"split_type":[0,0,0,0,0,0,0,0,0,0,0,0,0,0,0,0,0,0,0,0,0,0,0,0,0,0,0,0,0,0,0,0,0,0,0,0,0,0,0,0,0,0,0,0,0,0,0,0,0,0,0,0,0,0,0,0,0,0,0,0,0,0,0,0,0,0,0,0,0,0,0,0,0,0,0,0,0,0,0,0,0,0,0,0,0,0,0,0,0,0,0,0,0],"sum_hessian":[3.3991E4,2.2646E4,1.1345E4,2.123E4,1.416E3,7.088E3,4.257E3,1.8228E4,3.002E3,1.215E3,2.01E2,5.086E3,2.002E3,1.419E3,2.838E3,1.2153E4,6.075E3,2.2E3,8.02E2,1.016E3,1.99E2,4.066E3,1.02E3,9.99E2,1.003E3,2.04E2,1.215E3,4.08E2,2.43E3,7.294E3,4.859E3,3.05E3,3.025E3,1.2E3,1E3,6.01E2,2.01E2,4.07E2,6.09E2,2.436E3,1.63E3,6.12E2,4.08E2,5.99E2,4E2,6.01E2,4.02E2,2.03E2,1.012E3,2.04E2,2.04E2,4.06E2,2.024E3,6.08E3,1.214E3,2.439E3,2.42E3,1.83E3,1.22E3,1.01E3,2.015E3,2E2,1E3,8E2,2E2,2E2,4.01E2,2.04E2,2.03E2,4.05E2,2.04E2,1.83E3,6.06E2,1.222E3,4.08E2,2.04E2,4.08E2,2.04E2,2.04E2,1.99E2,4E2,2E2,2E2,2E2,4.01E2,2.01E2,2.01E2,4.07E2,6.05E2,2.03E2,2.03E2,1.012E3,1.012E3],"tree_param":{"num_deleted":"0","num_feature":"3","num_nodes":"93","size_leaf_vector":"1"}},{"base_weights":[-1.8370469E-6,-4.5557943E-4,1.3558201E-3,8.5160445E-4,-1.4445198E-3,-2.791546E-3,4.4859345E-3,-4.4169126E-4,1.1182443E-2,-7.569489E-4,-1.3114395E-2,-1.6427819E-2,4.0333173E-3,2.5336286E-2,3.2093964E-4,6.2876137E-4,-5.074037E-3,1.3931904E-3,3.0757528E-2,5.20618E-4,-3.0999673E-3,-7.098121E-3,-9.55414E-3,-1.8640581E-3,-4.558654E-2,1.8288177E-2,-7.334802E-4,3.4830585E-2,-9.957127E-4,9.91371E-3,-2.0795749E-3,-1.3062021E-3,1.1252321E-2,-1.1197873E-2,7.202033E-3,-6.318726E-3,9.101692E-3,1.1723134E-2,6.6861524E-3,8.030892E-3,-1.9983433E-3,-2.122211E-2,2.9699556E-3,-1.270388E-2,-9.4803487E-4,-1.1709929E-2,7.962298E-3,-1.1668917E-2,-1.5615971E-2,-3.5405066E-3,1.8588869E-2,1.0700334E-3,-1.6353749E-3,2.6734484E-2,1.531527E-2,1.3989394E-2,-2.523619E-3,-6.358314E-3,-6.512971E-4,-1.0977936E-3,1.0211285E-3,8.340732E-3,-6.5748687E-3,-6.8428693E-3,-1.6113498E-3,5.946592E-3,2.5765918E-4,-7.1028795E-4,-3.0774663E-3,-2.8531544E-3,8.328156E-3,-3.5284137E-4,5.731798E-3,-1.2652052E-3,1.177628E-3,-9.303651E-3,-3.419128E-3,-2.3999175E-3,1.5490905E-3,-2.3666315E-3,-5.2654827E-3,-1.3929582E-3,-5.626172E-3,3.0830237E-3,1.6827032E-3,1.4614346E-3,-3.5805574E-3,-1.8764873E-3,1.427069E-3,3.6411747E-4,-9.200023E-4,1.4200952E-2,1.8609143E-3,-3.673426E-3,5.0937803E-3,-3.539206E-3,3.0213178E-3,-6.0265354E-4,-5.7807396E-5],"categories":[],"categories_nodes":[],"categories_segments":[],"categories_sizes":[],"default_left":[0,0,0,0,0,0,0,0,0,0,0,0,0,0,0,0,0,0,0,0,0,0,0,0,0,0,0,0,0,0,0,0,0,0,0,0,0,0,0,0,0,0,0,0,0,0,0,0,0,0,0,0,0,0,0,0,0,0,0,0,0,0,0,0,0,0,0,0,0,0,0,0,0,0,0,0,0,0,0,0,0,0,0,0,0,0,0,0,0,0,0,0,0,0,0,0,0,0,0],"id":18,"left_children":[1,3,5,7,9,11,13,15,17,19,21,23,25,27,29,31,33,35,37,39,41,-1,43,45,47,49,51,53,-1,55,57,59,61,63,65,67,69,-1,-1,71,73,75,77,79,-1,81,83,-1,-1,85,-1,87,89,91,-1,-1,93,95,97,-1,-1,-1,-1,-1,-1,-1,-1,-1,-1,-1,-1,-1,-1,-1,-1,-1,-1,-1,-1,-1,-1,-1,-1,-1,-1,-1,-1,-1,-1,-1,-1,-1,-1,-1,-1,-1,-1,-1,-1],"loss_changes":[2.0940593E-2,3.2937326E-2,1.1055195E-1,1.4662668E-1,1.16376266E-1,3.4096593E-1,4.2143422E-1,4.8370413E-2,2.3393185E-1,4.100769E-2,3.007394E-2,5.1885045E-1,1.659474E-1,2.1994185E-1,9.3190216E-2,1.6290204E-1,1.3772911E-1,4.8507076E-2,2.7810276E-2,1.6774385E-1,5.318031E-1,0E0,1.214426E-2,7.904045E-2,1.5583396E-2,5.836767E-1,2.9800166E-3,7.8347266E-2,0E0,3.7001947E-1,1.9777898E-2,7.431329E-2,6.7086923E-1,8.255544E-2,4.8813727E-2,6.326366E-3,1.4195505E-1,0E0,0E0,2.2710693E-1,8.729861E-2,1.1632204E-1,8.7200955E-2,9.315185E-3,0E0,2.022231E-2,2.1699984E-3,0E0,0E0,2.8939968E-2,0E0,1.6530564E-2,4.982855E-3,1.7186293E-1,0E0,0E0,1.15099564E-1,7.250042E-2,1.5112357E-3,0E0,0E0,0E0,0E0,0E0,0E0,0E0,0E0,0E0,0E0,0E0,0E0,0E0,0E0,0E0,0E0,0E0,0E0,0E0,0E0,0E0,0E0,0E0,0E0,0E0,0E0,0E0,0E0,0E0,0E0,0E0,0E0,0E0,0E0,0E0,0E0,0E0,0E0,0E0,0E0],"parents":[2147483647,0,0,1,1,2,2,3,3,4,4,5,5,6,6,7,7,8,8,9,9,10,10,11,11,12,12,13,13,14,14,15,15,16,16,17,17,18,18,19,19,20,20,22,22,23,23,24,24,25,25,26,26,27,27,29,29,30,30,31,31,32,32,33,33,34,34,35,35,36,36,39,39,40,40,41,41,42,42,43,43,45,45,46,46,49,49,51,51,52,52,53,53,56,56,57,57,58,58],"right_children":[2,4,6,8,10,12,14,16,18,20,22,24,26,28,30,32,34,36,38,40,42,-1,44,46,48,50,52,54,-1,56,58,60,62,64,66,68,70,-1,-1,72,74,76,78,80,-1,82,84,-1,-1,86,-1,88,90,92,-1,-1,94,96,98,-1,-1,-1,-1,-1,-1,-1,-1,-1,-1,-1,-1,-1,-1,-1,-1,-1,-1,-1,-1,-1,-1,-1,-1,-1,-1,-1,-1,-1,-1,-1,-1,-1,-1,-1,-1,-1,-1,-1,-1],"split_conditions":[1.8E1,3E0,3E0,1.6E1,1.7E1,2E1,1.9E1,1.3E1,2E0,1.1E1,4E0,2E0,2.1E1,6E0,2E1,1.1E1,2E0,1.7E1,1.7E1,4E0,4E0,-7.098121E-3,6E0,1.9E1,1.9E1,2E0,2.2E1,5E0,-9.957127E-4,4E0,2.1E1,2E0,2E0,1.4E1,1.4E1,1E0,1E0,1.1723134E-2,6.6861524E-3,6E0,8E0,1.4E1,1.2E1,5E0,-9.4803487E-4,1E0,1E0,-1.1668917E-2,-1.5615971E-2,1E0,1.8588869E-2,1E0,1E0,4E0,1.531527E-2,1.3989394E-2,6E0,6E0,4E0,-1.0977936E-3,1.0211285E-3,8.340732E-3,-6.5748687E-3,-6.8428693E-3,-1.6113498E-3,5.946592E-3,2.5765918E-4,-7.1028795E-4,-3.0774663E-3,-2.8531544E-3,8.328156E-3,-3.5284137E-4,5.731798E-3,-1.2652052E-3,1.177628E-3,-9.303651E-3,-3.419128E-3,-2.3999175E-3,1.5490905E-3,-2.3666315E-3,-5.2654827E-3,-1.3929582E-3,-5.626172E-3,3.0830237E-3,1.6827032E-3,1.4614346E-3,-3.5805574E-3,-1.8764873E-3,1.427069E-3,3.6411747E-4,-9.200023E-4,1.4200952E-2,1.8609143E-3,-3.673426E-3,5.0937803E-3,-3.539206E-3,3.0213178E-3,-6.0265354E-4,-5.7807396E-5],"split_indices":[0,1,1,0,0,0,0,0,1,0,1,1,0,1,0,0,1,0,0,1,1,0,1,0,0,1,0,1,0,1,0,1,1,0,0,1,1,0,0,0,0,0,0,1,0,1,1,0,0,1,0,1,1,1,0,0,1,1,1,0,0,0,0,0,0,0,0,0,0,0,0,0,0,0,0,0,0,0,0,0,0,0,0,0,0,0,0,0,0,0,0,0,0,0,0,0,0,0,0],"split_type":[0,0,0,0,0,0,0,0,0,0,0,0,0,0,0,0,0,0,0,0,0,0,0,0,0,0,0,0,0,0,0,0,0,0,0,0,0,0,0,0,0,0,0,0,0,0,0,0,0,0,0,0,0,0,0,0,0,0,0,0,0,0,0,0,0,0,0,0,0,0,0,0,0,0,0,0,0,0,0,0,0,0,0,0,0,0,0,0,0,0,0,0,0,0,0,0,0,0,0],"sum_hessian":[3.3991E4,2.5477E4,8.514E3,1.0973E4,1.4504E4,3.662E3,4.852E3,9.753E3,1.22E3,1.3698E4,8.06E2,1.221E3,2.441E3,8.07E2,4.045E3,7.923E3,1.83E3,8.14E2,4.06E2,8.865E3,4.833E3,2.02E2,6.04E2,8.15E2,4.06E2,6.11E2,1.83E3,6.06E2,2.01E2,8.09E2,3.236E3,6.703E3,1.22E3,1.221E3,6.09E2,4.07E2,4.07E2,2.03E2,2.03E2,2.226E3,6.639E3,1.212E3,3.621E3,4.04E2,2E2,4.07E2,4.08E2,2.03E2,2.03E2,4.08E2,2.03E2,6.1E2,1.22E3,4.06E2,2E2,2.04E2,6.05E2,8.09E2,2.427E3,4.47E3,2.233E3,8.14E2,4.06E2,4.07E2,8.14E2,2.03E2,4.06E2,2.04E2,2.03E2,2.04E2,2.03E2,1.216E3,1.01E3,4.83E3,1.809E3,6.06E2,6.06E2,6.03E2,3.018E3,2.04E2,2E2,2.04E2,2.03E2,2.04E2,2.04E2,2.04E2,2.04E2,2.04E2,4.06E2,4.08E2,8.12E2,2.02E2,2.04E2,4.04E2,2.01E2,6.08E2,2.01E2,6.12E2,1.815E3],"tree_param":{"num_deleted":"0","num_feature":"3","num_nodes":"99","size_leaf_vector":"1"}},{"base_weights":[-5.2434535E-7,-1.5754631E-3,2.6321854E-4,1.8214087E-3,-3.5990651E-3,-3.3679066E-4,8.6288E-4,-1.6222581E-3,8.737646E-3,-9.569844E-3,-6.250768E-4,8.713171E-4,-2.7960197E-3,-6.558224E-4,3.944327E-3,2.4894706E-3,-9.040316E-3,-6.144595E-3,-1.4679996E-2,-2.8427963E-3,1.5932549E-3,-1.4427187E-5,1.0606905E-2,-3.5443882E-4,-2.9622003E-2,1.9380751E-3,-3.2479907E-3,2.2789031E-2,1.828636E-4,-3.772331E-4,5.8820467E-3,-1.1113367E-2,1.1396139E-3,-4.6839737E-3,-4.102436E-3,4.0044688E-4,-3.8875565E-3,5.325984E-3,-8.9986034E-4,2.543371E-3,-6.837662E-3,2.7852546E-4,1.2386518E-2,-2.340108E-3,1.9488245E-2,-2.9713446E-2,1.1880838E-2,2.3250962E-2,-7.6958595E-6,-1.014716E-2,3.6327469E-3,3.6965555E-3,4.1777063E-2,-7.781421E-3,2.1707753E-3,8.2965556E-4,-3.0236912E-4,-1.1122281E-3,-5.539449E-3,-8.367953E-4,-1.4928872E-3,2.162638E-3,1.0251587E-3,-1.3162916E-3,2.5514778E-4,-1.6420166E-4,3.5453208E-3,-7.441098E-3,-2.427658E-4,9.870716E-3,-4.8584403E-3,2.3615337E-4,-2.1121025E-3,1.02542015E-2,1.4315879E-3,1.6880227E-2,-3.0123962E-3,1.1953493E-3,-1.0001106E-3,-4.7061886E-3,-1.3959038E-3,4.881826E-3,-8.0684555E-4,-2.7117875E-4,2.4767285E-3,1.6537154E-2,8.506685E-3,-1.7850732E-3,-2.877958E-3,1.6943353E-3,-3.8579552E-4],"categories":[],"categories_nodes":[],"categories_segments":[],"categories_sizes":[],"default_left":[0,0,0,0,0,0,0,0,0,0,0,0,0,0,0,0,0,0,0,0,0,0,0,0,0,0,0,0,0,0,0,0,0,0,0,0,0,0,0,0,0,0,0,0,0,0,0,0,0,0,0,0,0,0,0,0,0,0,0,0,0,0,0,0,0,0,0,0,0,0,0,0,0,0,0,0,0,0,0,0,0,0,0,0,0,0,0,0,0,0,0],"id":19,"left_children":[1,3,5,7,9,11,13,15,-1,17,19,21,23,25,27,29,-1,31,33,35,37,39,41,43,45,47,49,51,53,55,-1,57,-1,-1,-1,-1,59,61,63,65,67,69,-1,71,73,-1,-1,75,77,79,81,83,85,87,89,-1,-1,-1,-1,-1,-1,-1,-1,-1,-1,-1,-1,-1,-1,-1,-1,-1,-1,-1,-1,-1,-1,-1,-1,-1,-1,-1,-1,-1,-1,-1,-1,-1,-1,-1,-1],"loss_changes":[1.4119974E-2,